{"learner":{"attributes":{"scikit_learn":"{\"_estimator_type\": \"classifier\"}"},"feature_names":["age_years","sex_F","Bilirubin","Cholesterol","Albumin","Copper","Alk_Phos","SGOT","Tryglicerides","Platelets","Prothrombin","Ascites","Hepatomegaly","Spiders","edema_score"],"feature_types":["float","int","float","float","float","float","float","float","float","float","float","float","float","float","int"],"gradient_booster":{"model":{"cats":{"enc":[],"feature_segments":[],"sorted_idx":[]},"gbtree_model_param":{"num_parallel_tree":"1","num_trees":"800"},"iteration_indptr":[0,4,8,12,16,20,24,28,32,36,40,44,48,52,56,60,64,68,72,76,80,84,88,92,96,100,104,108,112,116,120,124,128,132,136,140,144,148,152,156,160,164,168,172,176,180,184,188,192,196,200,204,208,212,216,220,224,228,232,236,240,244,248,252,256,260,264,268,272,276,280,284,288,292,296,300,304,308,312,316,320,324,328,332,336,340,344,348,352,356,360,364,368,372,376,380,384,388,392,396,400,404,408,412,416,420,424,428,432,436,440,444,448,452,456,460,464,468,472,476,480,484,488,492,496,500,504,508,512,516,520,524,528,532,536,540,544,548,552,556,560,564,568,572,576,580,584,588,592,596,600,604,608,612,616,620,624,628,632,636,640,644,648,652,656,660,664,668,672,676,680,684,688,692,696,700,704,708,712,716,720,724,728,732,736,740,744,748,752,756,760,764,768,772,776,780,784,788,792,796,800],"tree_info":[0,1,2,3,0,1,2,3,0,1,2,3,0,1,2,3,0,1,2,3,0,1,2,3,0,1,2,3,0,1,2,3,0,1,2,3,0,1,2,3,0,1,2,3,0,1,2,3,0,1,2,3,0,1,2,3,0,1,2,3,0,1,2,3,0,1,2,3,0,1,2,3,0,1,2,3,0,1,2,3,0,1,2,3,0,1,2,3,0,1,2,3,0,1,2,3,0,1,2,3,0,1,2,3,0,1,2,3,0,1,2,3,0,1,2,3,0,1,2,3,0,1,2,3,0,1,2,3,0,1,2,3,0,1,2,3,0,1,2,3,0,1,2,3,0,1,2,3,0,1,2,3,0,1,2,3,0,1,2,3,0,1,2,3,0,1,2,3,0,1,2,3,0,1,2,3,0,1,2,3,0,1,2,3,0,1,2,3,0,1,2,3,0,1,2,3,0,1,2,3,0,1,2,3,0,1,2,3,0,1,2,3,0,1,2,3,0,1,2,3,0,1,2,3,0,1,2,3,0,1,2,3,0,1,2,3,0,1,2,3,0,1,2,3,0,1,2,3,0,1,2,3,0,1,2,3,0,1,2,3,0,1,2,3,0,1,2,3,0,1,2,3,0,1,2,3,0,1,2,3,0,1,2,3,0,1,2,3,0,1,2,3,0,1,2,3,0,1,2,3,0,1,2,3,0,1,2,3,0,1,2,3,0,1,2,3,0,1,2,3,0,1,2,3,0,1,2,3,0,1,2,3,0,1,2,3,0,1,2,3,0,1,2,3,0,1,2,3,0,1,2,3,0,1,2,3,0,1,2,3,0,1,2,3,0,1,2,3,0,1,2,3,0,1,2,3,0,1,2,3,0,1,2,3,0,1,2,3,0,1,2,3,0,1,2,3,0,1,2,3,0,1,2,3,0,1,2,3,0,1,2,3,0,1,2,3,0,1,2,3,0,1,2,3,0,1,2,3,0,1,2,3,0,1,2,3,0,1,2,3,0,1,2,3,0,1,2,3,0,1,2,3,0,1,2,3,0,1,2,3,0,1,2,3,0,1,2,3,0,1,2,3,0,1,2,3,0,1,2,3,0,1,2,3,0,1,2,3,0,1,2,3,0,1,2,3,0,1,2,3,0,1,2,3,0,1,2,3,0,1,2,3,0,1,2,3,0,1,2,3,0,1,2,3,0,1,2,3,0,1,2,3,0,1,2,3,0,1,2,3,0,1,2,3,0,1,2,3,0,1,2,3,0,1,2,3,0,1,2,3,0,1,2,3,0,1,2,3,0,1,2,3,0,1,2,3,0,1,2,3,0,1,2,3,0,1,2,3,0,1,2,3,0,1,2,3,0,1,2,3,0,1,2,3,0,1,2,3,0,1,2,3,0,1,2,3,0,1,2,3,0,1,2,3,0,1,2,3,0,1,2,3,0,1,2,3,0,1,2,3,0,1,2,3,0,1,2,3,0,1,2,3,0,1,2,3,0,1,2,3,0,1,2,3,0,1,2,3,0,1,2,3,0,1,2,3,0,1,2,3,0,1,2,3,0,1,2,3,0,1,2,3,0,1,2,3,0,1,2,3,0,1,2,3,0,1,2,3,0,1,2,3,0,1,2,3,0,1,2,3,0,1,2,3,0,1,2,3,0,1,2,3,0,1,2,3,0,1,2,3,0,1,2,3,0,1,2,3,0,1,2,3,0,1,2,3,0,1,2,3,0,1,2,3,0,1,2,3,0,1,2,3,0,1,2,3,0,1,2,3,0,1,2,3,0,1,2,3,0,1,2,3,0,1,2,3,0,1,2,3],"trees":[{"base_weights":[-7.8460125E-6,1.2504965E0,-1.7644657E-1,1.306896E-1,-4.3343104E-2,-3.7022E-1,3.5350817E-1,-1.3676201E-2,1.0384767E-2,-6.631357E-3,-2.454721E-2,5.856482E-2,-6.2800604E-3],"categories":[],"categories_nodes":[],"categories_segments":[],"categories_sizes":[],"default_left":[0,0,1,0,0,1,1,0,0,0,0,0,0],"id":0,"left_children":[1,3,5,-1,7,9,11,-1,-1,-1,-1,-1,-1],"loss_changes":[7.5554347E0,7.5818706E0,3.212582E0,0E0,2.3918307E-1,5.7920074E-1,3.495674E0,0E0,0E0,0E0,0E0,0E0,0E0],"parents":[2147483647,0,0,1,1,2,2,4,4,5,5,6,6],"right_children":[2,4,6,-1,8,10,12,-1,-1,-1,-1,-1,-1],"split_conditions":[6.708E1,4.97E1,3.12E2,1.306896E-1,5.66E1,5.8E1,7.66E2,-1.3676201E-2,1.0384767E-2,-6.631357E-3,-2.454721E-2,5.856482E-2,-6.2800604E-3],"split_indices":[7,0,9,0,0,8,6,0,0,0,0,0,0],"split_type":[0,0,0,0,0,0,0,0,0,0,0,0,0],"sum_hessian":[3.224363E1,3.2341635E0,2.9009466E1,1.0780544E0,2.1561089E0,2.1463085E1,7.5463815E0,1.0780544E0,1.0780544E0,7.938401E0,1.3524683E1,2.254114E0,5.2922673E0],"tree_param":{"num_deleted":"0","num_feature":"15","num_nodes":"13","size_leaf_vector":"1"}},{"base_weights":[-3.151734E-7,-7.7691525E-2,1.0107917E0,1.6736281E-1,-2.9760358E-1,1.3431941E0,-1.8636255E-2,-1.5278958E-2,1.6582828E-2,-5.029393E-3,-2.1993121E-2,8.104551E-2,1.6331762E-2],"categories":[],"categories_nodes":[],"categories_segments":[],"categories_sizes":[],"default_left":[0,1,1,0,0,0,0,0,0,0,0,0,0],"id":1,"left_children":[1,3,5,7,9,11,-1,-1,-1,-1,-1,-1,-1],"loss_changes":[9.078413E0,5.835131E0,4.2953215E0,4.0963125E0,1.5516033E0,1.4101019E0,0E0,0E0,0E0,0E0,0E0,0E0,0E0],"parents":[2147483647,0,0,1,1,2,2,3,3,4,4,5,5],"right_children":[2,4,6,8,10,12,-1,-1,-1,-1,-1,-1,-1],"split_conditions":[4.45E2,5.1E1,2.412E3,1.9E2,1E0,5.41E1,-1.8636255E-2,-1.5278958E-2,1.6582828E-2,-5.029393E-3,-2.1993121E-2,8.104551E-2,1.6331762E-2],"split_indices":[9,5,6,9,12,0,0,0,0,0,0,0,0],"split_type":[0,0,0,0,0,0,0,0,0,0,0,0,0],"sum_hessian":[1.13604904E2,1.0635352E2,7.2513766E0,5.0414333E1,5.5939194E1,5.870162E0,1.3812146E0,1.2776236E1,3.76381E1,2.4171255E1,3.1767937E1,4.143644E0,1.7265183E0],"tree_param":{"num_deleted":"0","num_feature":"15","num_nodes":"13","size_leaf_vector":"1"}},{"base_weights":[1.0857151E-6,1.9055049E-1,-3.5160482E-1,1.040447E-1,8.111081E-1,-3.822909E-2,-9.009003E-2,1.1542047E-2,-1.942394E-2,-2.7126062E-3,4.641727E-2,5.2991793E-3,-3.541005E-2],"categories":[],"categories_nodes":[],"categories_segments":[],"categories_sizes":[],"default_left":[0,1,1,1,0,0,0,0,0,0,0,0,0],"id":2,"left_children":[1,3,5,7,9,-1,11,-1,-1,-1,-1,-1,-1],"loss_changes":[1.0487163E1,5.3650746E0,5.8726745E0,5.7252736E0,1.2954521E0,0E0,4.294816E0,0E0,0E0,0E0,0E0,0E0,0E0],"parents":[2147483647,0,0,1,1,2,2,3,3,4,4,6,6],"right_children":[2,4,6,8,10,-1,12,-1,-1,-1,-1,-1,-1],"split_conditions":[1.1E1,1.64E2,8.58E2,1.692E3,3.37E1,-3.822909E-2,1E0,1.1542047E-2,-1.942394E-2,-2.7126062E-3,4.641727E-2,5.2991793E-3,-3.541005E-2],"split_indices":[10,8,6,6,0,0,11,0,0,0,0,0,0],"split_type":[0,0,0,0,0,0,0,0,0,0,0,0,0],"sum_hessian":[1.545288E2,1.0051417E2,5.401462E1,8.9241554E1,1.1272617E1,2.0196772E1,3.3817852E1,7.139324E1,1.784831E1,1.4090772E0,9.86354E0,2.6302773E1,7.515078E0],"tree_param":{"num_deleted":"0","num_feature":"15","num_nodes":"13","size_leaf_vector":"1"}},{"base_weights":[8.350717E-7,-2.9029477E-1,4.418133E-1,1.6722512E-1,-4.692825E-1,-1.2317807E-2,8.6838E-1,-2.5066126E-3,3.9470326E-2,2.5641313E-3,-2.8664798E-2,-2.1989876E-2,1.188344E-2,5.587843E-2,1.7281618E-2],"categories":[],"categories_nodes":[],"categories_segments":[],"categories_sizes":[],"default_left":[1,0,0,0,0,0,1,0,0,0,0,0,0,0,0],"id":3,"left_children":[1,3,5,7,9,11,13,-1,-1,-1,-1,-1,-1,-1,-1],"loss_changes":[1.9444256E1,7.570668E0,1.165588E1,3.6185398E0,3.6044197E0,3.321401E0,3.653431E0,0E0,0E0,0E0,0E0,0E0,0E0,0E0,0E0],"parents":[2147483647,0,0,1,1,2,2,3,3,4,4,5,5,6,6],"right_children":[2,4,6,8,10,12,14,-1,-1,-1,-1,-1,-1,-1,-1],"split_conditions":[1E0,3.35E0,1.1E1,6.39E1,1.9E2,5.4E1,3.56E2,-2.5066126E-3,3.9470326E-2,2.5641313E-3,-2.8664798E-2,-2.1989876E-2,1.188344E-2,5.587843E-2,1.7281618E-2],"split_indices":[12,4,10,0,9,5,3,0,0,0,0,0,0,0,0],"split_type":[0,0,0,0,0,0,0,0,0,0,0,0,0,0,0],"sum_hessian":[1.4960478E2,9.049043E1,5.9114353E1,2.5464645E1,6.502579E1,2.9102451E1,3.0011904E1,1.955321E1,5.9114356E0,1.091342E1,5.411237E1,1.04586935E1,1.8643759E1,1.955321E1,1.04586935E1],"tree_param":{"num_deleted":"0","num_feature":"15","num_nodes":"15","size_leaf_vector":"1"}},{"base_weights":[1.9721068E-3,1.0679334E0,-1.9597599E-1,1.7456912E0,-1.6211843E-2,-3.0843017E-1,4.826242E-1,1.2027029E-1,8.587423E-3,2.1222116E-2,-1.8885339E-2,-1.607967E-2,5.1206212E-2],"categories":[],"categories_nodes":[],"categories_segments":[],"categories_sizes":[],"default_left":[0,0,1,0,0,0,0,0,0,0,0,0,0],"id":4,"left_children":[1,3,5,7,-1,9,11,-1,-1,-1,-1,-1,-1],"loss_changes":[7.1985817E0,5.6072063E0,2.345179E0,3.4807243E0,0E0,1.4448051E0,2.280901E0,0E0,0E0,0E0,0E0,0E0,0E0],"parents":[2147483647,0,0,1,1,2,2,3,3,5,5,6,6],"right_children":[2,4,6,8,-1,10,12,-1,-1,-1,-1,-1,-1],"split_conditions":[7.224E1,1E0,3.62E2,2.55E2,-1.6211843E-2,3.51E1,1.37E2,1.2027029E-1,8.587423E-3,2.1222116E-2,-1.8885339E-2,-1.607967E-2,5.1206212E-2],"split_indices":[7,12,9,3,0,0,7,0,0,0,0,0,0],"split_type":[0,0,0,0,0,0,0,0,0,0,0,0,0],"sum_hessian":[3.2123825E1,4.3427672E0,2.7781057E1,2.7500236E0,1.5927439E0,2.429972E1,3.4813354E0,1.5655563E0,1.1844673E0,1.6558479E0,2.2643873E1,1.5642585E0,1.9170771E0],"tree_param":{"num_deleted":"0","num_feature":"15","num_nodes":"13","size_leaf_vector":"1"}},{"base_weights":[1.3467919E-5,-7.600824E-2,9.621977E-1,1.6024852E-1,-2.9159132E-1,1.2723699E0,-1.8535983E-2,-1.4972319E-2,1.581764E-2,-1.8392237E-2,2.9735984E-3,7.598642E-2,1.6137812E-2],"categories":[],"categories_nodes":[],"categories_segments":[],"categories_sizes":[],"default_left":[0,1,1,0,0,0,0,0,0,0,0,0,0],"id":5,"left_children":[1,3,5,7,9,11,-1,-1,-1,-1,-1,-1,-1],"loss_changes":[8.454602E0,5.502694E0,3.9708018E0,3.808686E0,1.5307689E0,1.1752453E0,0E0,0E0,0E0,0E0,0E0,0E0,0E0],"parents":[2147483647,0,0,1,1,2,2,3,3,4,4,5,5],"right_children":[2,4,6,8,10,12,-1,-1,-1,-1,-1,-1,-1],"split_conditions":[4.45E2,5.1E1,2.412E3,1.9E2,3.34E2,5.41E1,-1.8535983E-2,-1.4972319E-2,1.581764E-2,-1.8392237E-2,2.9735984E-3,7.598642E-2,1.6137812E-2],"split_indices":[9,5,6,9,9,0,0,0,0,0,0,0,0],"split_type":[0,0,0,0,0,0,0,0,0,0,0,0,0],"sum_hessian":[1.1358406E2,1.0612054E2,7.463527E0,5.075499E1,5.5365547E1,6.0914593E0,1.372068E0,1.2633548E1,3.812144E1,4.5446457E1,9.919088E0,4.3563404E0,1.7351192E0],"tree_param":{"num_deleted":"0","num_feature":"15","num_nodes":"13","size_leaf_vector":"1"}},{"base_weights":[-4.350816E-4,1.8228689E-1,-3.4106722E-1,9.840383E-2,7.793479E-1,-3.750472E-2,-8.452999E-2,1.1092797E-2,-1.9206457E-2,4.4726964E-2,-3.2507826E-3,5.3280815E-3,-3.4703195E-2],"categories":[],"categories_nodes":[],"categories_segments":[],"categories_sizes":[],"default_left":[0,1,1,1,0,0,0,0,0,0,0,0,0],"id":6,"left_children":[1,3,5,7,9,-1,11,-1,-1,-1,-1,-1,-1],"loss_changes":[9.742407E0,5.0257673E0,5.6709423E0,5.4747176E0,1.2647748E0,0E0,4.1170883E0,0E0,0E0,0E0,0E0,0E0,0E0],"parents":[2147483647,0,0,1,1,2,2,3,3,4,4,6,6],"right_children":[2,4,6,8,10,-1,12,-1,-1,-1,-1,-1,-1],"split_conditions":[1.1E1,1.64E2,8.58E2,1.692E3,3.09E2,-3.750472E-2,1E0,1.1092797E-2,-1.9206457E-2,4.4726964E-2,-3.2507826E-3,5.3280815E-3,-3.4703195E-2],"split_indices":[10,8,6,6,8,0,11,0,0,0,0,0,0],"split_type":[0,0,0,0,0,0,0,0,0,0,0,0,0],"sum_hessian":[1.5452832E2,1.0087942E2,5.3648907E1,8.947377E1,1.140565E1,1.993704E1,3.371187E1,7.1676216E1,1.7797546E1,9.98415E0,1.4215002E0,2.6293814E1,7.4180536E0],"tree_param":{"num_deleted":"0","num_feature":"15","num_nodes":"13","size_leaf_vector":"1"}},{"base_weights":[5.3218514E-6,-2.8268015E-1,4.24362E-1,1.6352275E-1,-4.5913953E-1,-1.195195E-2,8.276759E-1,-2.393509E-3,3.8035132E-2,2.4148417E-3,-2.8090397E-2,-2.1455748E-2,1.1434328E-2,4.505032E-2,-2.2506062E-2],"categories":[],"categories_nodes":[],"categories_segments":[],"categories_sizes":[],"default_left":[1,0,0,0,0,0,0,0,0,0,0,0,0,0,0],"id":7,"left_children":[1,3,5,7,9,11,13,-1,-1,-1,-1,-1,-1,-1,-1],"loss_changes":[1.8179878E1,7.2368317E0,1.0672339E1,3.3835945E0,3.4366016E0,3.1188307E0,3.3572407E0,0E0,0E0,0E0,0E0,0E0,0E0,0E0,0E0],"parents":[2147483647,0,0,1,1,2,2,3,3,4,4,5,5,6,6],"right_children":[2,4,6,8,10,12,14,-1,-1,-1,-1,-1,-1,-1,-1],"split_conditions":[1E0,3.35E0,1.1E1,6.39E1,1.9E2,5.4E1,4.12E2,-2.393509E-3,3.8035132E-2,2.4148417E-3,-2.8090397E-2,-2.1455748E-2,1.1434328E-2,4.505032E-2,-2.2506062E-2],"split_indices":[12,4,10,0,9,5,9,0,0,0,0,0,0,0,0],"split_type":[0,0,0,0,0,0,0,0,0,0,0,0,0,0,0],"sum_hessian":[1.4955017E2,8.995827E1,5.9591896E1,2.5514498E1,6.444377E1,2.9090984E1,3.0500912E1,1.9523355E1,5.9911427E0,1.0933713E1,5.351006E1,1.0355608E1,1.8735376E1,2.9124392E1,1.3765205E0],"tree_param":{"num_deleted":"0","num_feature":"15","num_nodes":"15","size_leaf_vector":"1"}},{"base_weights":[4.003331E-3,1.146781E0,-1.7003867E-1,1.14760675E-1,-4.744979E-2,-3.6475554E-1,3.386153E-1,1.1745791E-2,-1.4263486E-2,-6.266413E-3,-2.443374E-2,4.6453338E-2,-1.1702542E-2],"categories":[],"categories_nodes":[],"categories_segments":[],"categories_sizes":[],"default_left":[0,0,1,0,1,1,1,0,0,0,0,0,0],"id":8,"left_children":[1,3,5,-1,7,9,11,-1,-1,-1,-1,-1,-1],"loss_changes":[6.7581363E0,6.2676053E0,3.0460992E0,0E0,2.8063235E-1,5.861676E-1,3.1549416E0,0E0,0E0,0E0,0E0,0E0,0E0],"parents":[2147483647,0,0,1,1,2,2,4,4,5,5,6,6],"right_children":[2,4,6,-1,8,10,12,-1,-1,-1,-1,-1,-1],"split_conditions":[6.708E1,4.97E1,3.12E2,1.14760675E-1,9.2E1,5.8E1,2.58E2,1.1745791E-2,-1.4263486E-2,-6.266413E-3,-2.443374E-2,4.6453338E-2,-1.1702542E-2],"split_indices":[7,0,9,0,8,8,3,0,0,0,0,0,0],"split_type":[0,0,0,0,0,0,0,0,0,0,0,0,0],"sum_hessian":[3.1998621E1,3.4905045E0,2.8508116E1,1.3094009E0,2.1811037E0,2.0820688E1,7.6874275E0,1.0027461E0,1.1783576E0,7.786868E0,1.3033819E1,3.478521E0,4.2089067E0],"tree_param":{"num_deleted":"0","num_feature":"15","num_nodes":"13","size_leaf_vector":"1"}},{"base_weights":[1.5347748E-4,-7.414589E-2,9.1572475E-1,1.1172517E-1,-3.350194E-1,1.2065232E0,-1.8465782E-2,3.1486657E-2,-1.6569829E-3,-2.9997367E-2,-8.8324E-3,7.153108E-2,1.5779166E-2],"categories":[],"categories_nodes":[],"categories_segments":[],"categories_sizes":[],"default_left":[0,0,1,0,0,0,0,0,0,0,0,0,0],"id":9,"left_children":[1,3,5,7,9,11,-1,-1,-1,-1,-1,-1,-1],"loss_changes":[7.8578696E0,5.2181582E0,3.6855679E0,4.7590117E0,1.76963E0,1.006958E0,0E0,0E0,0E0,0E0,0E0,0E0,0E0],"parents":[2147483647,0,0,1,1,2,2,3,3,4,4,5,5],"right_children":[2,4,6,8,10,12,-1,-1,-1,-1,-1,-1,-1],"split_conditions":[4.45E2,1.08E1,2.412E3,9.1E1,2.98E2,5.41E1,-1.8465782E-2,3.1486657E-2,-1.6569829E-3,-2.9997367E-2,-8.8324E-3,7.153108E-2,1.5779166E-2],"split_indices":[9,10,6,8,3,0,0,0,0,0,0,0,0],"split_type":[0,0,0,0,0,0,0,0,0,0,0,0,0],"sum_hessian":[1.1351402E2,1.0584373E2,7.6702895E0,6.21406E1,4.3703133E1,6.3046737E0,1.365616E0,1.2848797E1,4.92918E1,1.5307728E1,2.8395405E1,4.553569E0,1.7511048E0],"tree_param":{"num_deleted":"0","num_feature":"15","num_nodes":"13","size_leaf_vector":"1"}},{"base_weights":[-7.5213925E-4,1.7426914E-1,-3.305044E-1,9.2865564E-2,7.499687E-1,-3.685541E-2,-7.78151E-2,1.0648414E-2,-1.8977301E-2,4.3011423E-2,-3.2571878E-3,5.4288446E-3,-3.3999924E-2],"categories":[],"categories_nodes":[],"categories_segments":[],"categories_sizes":[],"default_left":[0,1,1,1,0,0,0,0,0,0,0,0,0],"id":10,"left_children":[1,3,5,7,9,-1,11,-1,-1,-1,-1,-1,-1],"loss_changes":[9.029556E0,4.720296E0,5.516219E0,5.226323E0,1.1813197E0,0E0,3.9544494E0,0E0,0E0,0E0,0E0,0E0,0E0],"parents":[2147483647,0,0,1,1,2,2,3,3,4,4,6,6],"right_children":[2,4,6,8,10,-1,12,-1,-1,-1,-1,-1,-1],"split_conditions":[1.1E1,1.64E2,8.58E2,1.692E3,3.09E2,-3.685541E-2,1E0,1.0648414E-2,-1.8977301E-2,4.3011423E-2,-3.2571878E-3,5.4288446E-3,-3.3999924E-2],"split_indices":[10,8,6,6,8,0,11,0,0,0,0,0,0],"split_type":[0,0,0,0,0,0,0,0,0,0,0,0,0],"sum_hessian":[1.5445642E2,1.0120942E2,5.3247E1,8.968879E1,1.1520633E1,1.9673388E1,3.3573616E1,7.194673E1,1.7742056E1,1.0099174E1,1.4214592E0,2.6263918E1,7.3096967E0],"tree_param":{"num_deleted":"0","num_feature":"15","num_nodes":"13","size_leaf_vector":"1"}},{"base_weights":[-2.1775186E-4,-2.757988E-1,4.0839136E-1,1.592436E-1,-4.497162E-1,-1.1037906E-2,7.904901E-1,-2.3097056E-3,3.663503E-2,-3.0140115E-2,-5.2109202E-3,-2.093667E-2,1.1051509E-2,5.090558E-2,1.5393999E-2],"categories":[],"categories_nodes":[],"categories_segments":[],"categories_sizes":[],"default_left":[1,0,0,0,0,0,1,0,0,0,0,0,0,0,0],"id":11,"left_children":[1,3,5,7,9,11,13,-1,-1,-1,-1,-1,-1,-1,-1],"loss_changes":[1.7050762E1,6.913725E0,9.783229E0,3.1634903E0,3.367961E0,2.9367237E0,3.1940422E0,0E0,0E0,0E0,0E0,0E0,0E0,0E0,0E0],"parents":[2147483647,0,0,1,1,2,2,3,3,4,4,5,5,6,6],"right_children":[2,4,6,8,10,12,14,-1,-1,-1,-1,-1,-1,-1,-1],"split_conditions":[1E0,3.35E0,1.1E1,6.39E1,5.6E1,5.4E1,3.56E2,-2.3097056E-3,3.663503E-2,-3.0140115E-2,-5.2109202E-3,-2.093667E-2,1.1051509E-2,5.090558E-2,1.5393999E-2],"split_indices":[12,4,10,0,0,5,3,0,0,0,0,0,0,0,0],"split_type":[0,0,0,0,0,0,0,0,0,0,0,0,0,0,0],"sum_hessian":[1.4942085E2,8.9430595E1,5.999026E1,2.556525E1,6.386534E1,2.9061071E1,3.092919E1,1.9499214E1,6.0660367E0,4.373995E1,2.0125395E1,1.0249851E1,1.881122E1,2.0262741E1,1.0666449E1],"tree_param":{"num_deleted":"0","num_feature":"15","num_nodes":"15","size_leaf_vector":"1"}},{"base_weights":[5.45613E-3,9.7904E-1,-1.8936202E-1,1.5638049E0,-1.6157437E-2,-4.322183E-1,1.308226E-1,1.0470243E-1,8.256207E-3,1.0756427E-2,-2.4563253E-2,-8.903933E-3,4.5537625E-2],"categories":[],"categories_nodes":[],"categories_segments":[],"categories_sizes":[],"default_left":[0,0,1,0,0,0,0,0,0,0,0,0,0],"id":12,"left_children":[1,3,5,7,-1,9,11,-1,-1,-1,-1,-1,-1],"loss_changes":[6.4262896E0,4.8064456E0,2.253641E0,2.672123E0,0E0,7.287426E-1,3.2833183E0,0E0,0E0,0E0,0E0,0E0,0E0],"parents":[2147483647,0,0,1,1,2,2,3,3,5,5,6,6],"right_children":[2,4,6,8,-1,10,12,-1,-1,-1,-1,-1,-1],"split_conditions":[7.224E1,1E0,2.65E2,2.55E2,-1.6157437E-2,3.69E1,2.064E2,1.0470243E-1,8.256207E-3,1.0756427E-2,-2.4563253E-2,-8.903933E-3,4.5537625E-2],"split_indices":[7,12,9,3,0,0,7,0,0,0,0,0,0],"split_type":[0,0,0,0,0,0,0,0,0,0,0,0,0],"sum_hessian":[3.1903658E1,4.648391E0,2.7255266E1,3.069215E0,1.5791758E0,1.530028E1,1.1954987E1,1.8650209E0,1.2041943E0,1.0579793E0,1.42423E1,9.116108E0,2.8388784E0],"tree_param":{"num_deleted":"0","num_feature":"15","num_nodes":"13","size_leaf_vector":"1"}},{"base_weights":[3.207012E-4,-7.23852E-2,8.762308E-1,1.5251778E-1,-2.823702E-1,1.1504956E0,-1.8367687E-2,3.969085E-2,2.286621E-3,-1.7925946E-2,3.1370805E-3,6.7594096E-2,1.5686927E-2],"categories":[],"categories_nodes":[],"categories_segments":[],"categories_sizes":[],"default_left":[0,1,1,0,0,0,0,0,0,0,0,0,0],"id":13,"left_children":[1,3,5,7,9,11,-1,-1,-1,-1,-1,-1,-1],"loss_changes":[7.350607E0,5.076487E0,3.43993E0,3.532382E0,1.4802146E0,8.380165E-1,0E0,0E0,0E0,0E0,0E0,0E0,0E0],"parents":[2147483647,0,0,1,1,2,2,3,3,4,4,5,5],"right_children":[2,4,6,8,10,12,-1,-1,-1,-1,-1,-1,-1],"split_conditions":[4.45E2,5.1E1,2.412E3,9.9E0,3.34E2,5.41E1,-1.8367687E-2,3.969085E-2,2.286621E-3,-1.7925946E-2,3.1370805E-3,6.7594096E-2,1.5686927E-2],"split_indices":[9,5,6,10,9,0,0,0,0,0,0,0,0],"split_type":[0,0,0,0,0,0,0,0,0,0,0,0,0],"sum_hessian":[1.1342748E2,1.0558098E2,7.8465075E0,5.111176E1,5.446922E1,6.4900274E0,1.3564798E0,6.3775635E0,4.4734196E1,4.4591328E1,9.877891E0,4.734849E0,1.7551787E0],"tree_param":{"num_deleted":"0","num_feature":"15","num_nodes":"13","size_leaf_vector":"1"}},{"base_weights":[-1.0627013E-3,1.6765799E-1,-3.2187283E-1,3.2303017E-1,-1.16128236E-1,-3.629097E-2,-7.325384E-2,2.0026172E-2,-2.5207672E-2,-1.0466451E-2,4.2958155E-2,5.4178988E-3,-3.338709E-2],"categories":[],"categories_nodes":[],"categories_segments":[],"categories_sizes":[],"default_left":[0,0,1,0,1,0,0,0,0,0,0,0,0],"id":14,"left_children":[1,3,5,7,9,-1,11,-1,-1,-1,-1,-1,-1],"loss_changes":[8.461672E0,4.554928E0,5.357825E0,4.4627376E0,3.541526E0,0E0,3.7932968E0,0E0,0E0,0E0,0E0,0E0,0E0],"parents":[2147483647,0,0,1,1,2,2,3,3,4,4,6,6],"right_children":[2,4,6,8,10,-1,12,-1,-1,-1,-1,-1,-1],"split_conditions":[1.1E1,5.44E1,8.58E2,4.3E2,2.13E2,-3.629097E-2,1E0,2.0026172E-2,-2.5207672E-2,-1.0466451E-2,4.2958155E-2,5.4178988E-3,-3.338709E-2],"split_indices":[10,0,6,9,8,0,11,0,0,0,0,0,0],"split_type":[0,0,0,0,0,0,0,0,0,0,0,0,0],"sum_hessian":[1.5433208E2,1.01453156E2,5.287892E1,6.547014E1,3.5983013E1,1.9414917E1,3.3464005E1,6.0333683E1,5.136457E0,3.3561203E1,2.4218073E0,2.6259611E1,7.2043943E0],"tree_param":{"num_deleted":"0","num_feature":"15","num_nodes":"13","size_leaf_vector":"1"}},{"base_weights":[-3.4055882E-4,-2.6935562E-1,3.9425427E-1,1.5481219E-1,-4.407204E-1,-8.673202E-3,7.563297E-1,-4.172099E-3,3.0716775E-2,-2.7219826E-2,2.470233E-3,-2.0458853E-2,1.0832783E-2,4.218947E-2,-1.2870634E-2],"categories":[],"categories_nodes":[],"categories_segments":[],"categories_sizes":[],"default_left":[1,0,0,1,0,0,0,0,0,0,0,0,0,0,0],"id":15,"left_children":[1,3,5,7,9,11,13,-1,-1,-1,-1,-1,-1,-1,-1],"loss_changes":[1.6050375E1,6.603316E0,8.948863E0,2.964694E0,3.2940464E0,2.7959526E0,3.080555E0,0E0,0E0,0E0,0E0,0E0,0E0,0E0,0E0],"parents":[2147483647,0,0,1,1,2,2,3,3,4,4,5,5,6,6],"right_children":[2,4,6,8,10,12,14,-1,-1,-1,-1,-1,-1,-1,-1],"split_conditions":[1E0,3.35E0,1.1E1,2.86E2,2.6E0,5.4E1,4.01E2,-4.172099E-3,3.0716775E-2,-2.7219826E-2,2.470233E-3,-2.0458853E-2,1.0832783E-2,4.218947E-2,-1.2870634E-2],"split_indices":[12,4,10,9,2,5,9,0,0,0,0,0,0,0,0],"split_type":[0,0,0,0,0,0,0,0,0,0,0,0,0,0,0],"sum_hessian":[1.4920148E2,8.890671E1,6.029477E1,2.561074E1,6.3295963E1,2.8999441E1,3.1295328E1,1.7404995E1,8.205746E0,5.2153263E1,1.1142702E1,1.0147381E1,1.885206E1,2.8964125E1,2.3312035E0],"tree_param":{"num_deleted":"0","num_feature":"15","num_nodes":"15","size_leaf_vector":"1"}},{"base_weights":[6.978871E-3,9.302046E-1,-1.8570755E-1,1.4567773E0,-1.601111E-2,-4.298731E-1,1.2935683E-1,9.60887E-2,7.984894E-3,1.0692121E-2,-2.4498256E-2,-8.743412E-3,4.3452732E-2],"categories":[],"categories_nodes":[],"categories_segments":[],"categories_sizes":[],"default_left":[0,0,1,0,0,0,0,0,0,0,0,0,0],"id":16,"left_children":[1,3,5,7,-1,9,11,-1,-1,-1,-1,-1,-1],"loss_changes":[6.0078154E0,4.305347E0,2.2073393E0,2.2761974E0,0E0,7.232938E-1,3.0731478E0,0E0,0E0,0E0,0E0,0E0,0E0],"parents":[2147483647,0,0,1,1,2,2,3,3,5,5,6,6],"right_children":[2,4,6,8,-1,10,12,-1,-1,-1,-1,-1,-1],"split_conditions":[7.224E1,1E0,2.65E2,2.55E2,-1.601111E-2,3.69E1,2.064E2,9.60887E-2,7.984894E-3,1.0692121E-2,-2.4498256E-2,-8.743412E-3,4.3452732E-2],"split_indices":[7,12,9,3,0,0,7,0,0,0,0,0,0],"split_type":[0,0,0,0,0,0,0,0,0,0,0,0,0],"sum_hessian":[3.1800995E1,4.8302207E0,2.6970774E1,3.282773E0,1.5474474E0,1.4989758E1,1.1981016E1,2.061956E0,1.2208173E0,1.0613902E0,1.3928368E1,9.030515E0,2.9505012E0],"tree_param":{"num_deleted":"0","num_feature":"15","num_nodes":"13","size_leaf_vector":"1"}},{"base_weights":[6.826907E-4,-7.014646E-2,8.3285344E-1,1.0895785E-1,-3.2640746E-1,1.0907346E0,-1.8294126E-2,2.994058E-2,-1.5589793E-3,-2.9654149E-2,-8.474679E-3,6.0904678E-2,7.568816E-3],"categories":[],"categories_nodes":[],"categories_segments":[],"categories_sizes":[],"default_left":[0,0,1,0,0,0,0,0,0,0,0,0,0],"id":17,"left_children":[1,3,5,7,9,11,-1,-1,-1,-1,-1,-1,-1],"loss_changes":[6.794716E0,4.911933E0,3.194271E0,4.3631005E0,1.7389107E0,7.358999E-1,0E0,0E0,0E0,0E0,0E0,0E0,0E0],"parents":[2147483647,0,0,1,1,2,2,3,3,4,4,5,5],"right_children":[2,4,6,8,10,12,-1,-1,-1,-1,-1,-1,-1],"split_conditions":[4.45E2,1.08E1,2.412E3,9.1E1,2.98E2,5.7E1,-1.8294126E-2,2.994058E-2,-1.5589793E-3,-2.9654149E-2,-8.474679E-3,6.0904678E-2,7.568816E-3],"split_indices":[9,10,6,8,3,0,0,0,0,0,0,0,0],"split_type":[0,0,0,0,0,0,0,0,0,0,0,0,0],"sum_hessian":[1.13286934E2,1.0524486E2,8.042075E0,6.2286674E1,4.2958187E1,6.6924424E0,1.3496329E0,1.3127201E1,4.9159473E1,1.4883677E1,2.807451E1,5.6321073E0,1.0603352E0],"tree_param":{"num_deleted":"0","num_feature":"15","num_nodes":"13","size_leaf_vector":"1"}},{"base_weights":[-1.3935635E-3,1.6037706E-1,-3.12261E-1,3.2510743E-1,-9.2857644E-2,-3.5726603E-2,-6.715485E-2,2.029268E-2,-2.4545036E-2,-8.640401E-3,4.179159E-2,5.4952013E-3,-3.275628E-2],"categories":[],"categories_nodes":[],"categories_segments":[],"categories_sizes":[],"default_left":[0,0,1,0,1,0,0,0,0,0,0,0,0],"id":18,"left_children":[1,3,5,7,9,-1,11,-1,-1,-1,-1,-1,-1],"loss_changes":[7.85351E0,4.315243E0,5.2221355E0,4.3145847E0,3.208159E0,0E0,3.6445658E0,0E0,0E0,0E0,0E0,0E0,0E0],"parents":[2147483647,0,0,1,1,2,2,3,3,4,4,6,6],"right_children":[2,4,6,8,10,-1,12,-1,-1,-1,-1,-1,-1],"split_conditions":[1.1E1,5.3E1,8.58E2,4.3E2,2.13E2,-3.5726603E-2,1E0,2.029268E-2,-2.4545036E-2,-8.640401E-3,4.179159E-2,5.4952013E-3,-3.275628E-2],"split_indices":[10,0,6,9,8,0,11,0,0,0,0,0,0],"split_type":[0,0,0,0,0,0,0,0,0,0,0,0,0],"sum_hessian":[1.5417105E2,1.0172107E2,5.2449978E1,6.1458324E1,4.0262745E1,1.9133183E1,3.3316795E1,5.638183E1,5.076497E0,3.78207E1,2.442041E0,2.6230839E1,7.0859585E0],"tree_param":{"num_deleted":"0","num_feature":"15","num_nodes":"13","size_leaf_vector":"1"}},{"base_weights":[-6.0484174E-4,-2.6311448E-1,3.805642E-1,-4.2658204E-1,1.6433884E-1,-7.167072E-3,7.25012E-1,-2.4049468E-3,-2.7865803E-2,-1.1843286E-2,2.712363E-2,-1.999031E-2,1.0552063E-2,4.0426906E-2,-1.2707082E-2],"categories":[],"categories_nodes":[],"categories_segments":[],"categories_sizes":[],"default_left":[1,0,0,0,0,0,0,0,0,0,0,0,0,0,0],"id":19,"left_children":[1,3,5,7,9,11,13,-1,-1,-1,-1,-1,-1,-1,-1],"loss_changes":[1.5104151E1,6.3160114E0,8.227025E0,3.1863642E0,3.9893723E0,2.6505473E0,2.872532E0,0E0,0E0,0E0,0E0,0E0,0E0,0E0,0E0],"parents":[2147483647,0,0,1,1,2,2,3,3,4,4,5,5,6,6],"right_children":[2,4,6,8,10,12,14,-1,-1,-1,-1,-1,-1,-1,-1],"split_conditions":[1E0,5.8E1,1.1E1,3.35E0,1E0,5.4E1,4.01E2,-2.4049468E-3,-2.7865803E-2,-1.1843286E-2,2.712363E-2,-1.999031E-2,1.0552063E-2,4.0426906E-2,-1.2707082E-2],"split_indices":[12,0,10,4,11,5,9,0,0,0,0,0,0,0,0],"split_type":[0,0,0,0,0,0,0,0,0,0,0,0,0,0,0],"sum_hessian":[1.4894939E2,8.838719E1,6.0562195E1,6.393795E1,2.4449242E1,2.8951654E1,3.1610542E1,1.6766323E1,4.7171627E1,1.2044002E1,1.240524E1,1.0044888E1,1.8906765E1,2.928652E1,2.3240223E0],"tree_param":{"num_deleted":"0","num_feature":"15","num_nodes":"15","size_leaf_vector":"1"}},{"base_weights":[8.327544E-3,1.0026898E0,-1.6096425E-1,9.605148E-2,-5.7718825E-2,-3.5664847E-1,3.1703693E-1,-1.468005E-2,1.178036E-2,-5.717141E-3,-2.4272421E-2,-1.1505558E-2,4.188181E-2],"categories":[],"categories_nodes":[],"categories_segments":[],"categories_sizes":[],"default_left":[0,0,1,0,0,1,0,0,0,0,0,0,0],"id":20,"left_children":[1,3,5,-1,7,9,11,-1,-1,-1,-1,-1,-1],"loss_changes":[5.666474E0,4.878681E0,2.8075652E0,0E0,2.9356384E-1,5.970664E-1,2.7269614E0,0E0,0E0,0E0,0E0,0E0,0E0],"parents":[2147483647,0,0,1,1,2,2,4,4,5,5,6,6],"right_children":[2,4,6,-1,8,10,12,-1,-1,-1,-1,-1,-1],"split_conditions":[6.708E1,4.97E1,3.12E2,9.605148E-2,5.7E1,5.8E1,3.58E0,-1.468005E-2,1.178036E-2,-5.717141E-3,-2.4272421E-2,-1.1505558E-2,4.188181E-2],"split_indices":[7,0,9,0,0,8,4,0,0,0,0,0,0],"split_type":[0,0,0,0,0,0,0,0,0,0,0,0,0],"sum_hessian":[3.1702639E1,3.8960016E0,2.7806637E1,1.6529303E0,2.2430713E0,1.9909824E1,7.896813E0,1.2427552E0,1.0003163E0,7.5653048E0,1.2344519E1,4.1222887E0,3.7745237E0],"tree_param":{"num_deleted":"0","num_feature":"15","num_nodes":"13","size_leaf_vector":"1"}},{"base_weights":[8.551381E-4,2.3427698E-1,-2.3711699E-1,-2.944158E-1,3.8564673E-1,-3.5026777E-1,1.7109637E-1,2.0979969E-2,-2.873152E-2,3.604065E-2,8.217644E-3,-2.1397395E-2,2.189976E-3,4.1391727E-2,-7.826274E-3],"categories":[],"categories_nodes":[],"categories_segments":[],"categories_sizes":[],"default_left":[1,0,1,0,0,1,1,0,0,0,0,0,0,0,0],"id":21,"left_children":[1,3,5,7,9,11,13,-1,-1,-1,-1,-1,-1,-1,-1],"loss_changes":[6.396224E0,4.7654023E0,2.6936636E0,2.9432206E0,3.2653694E0,1.3954272E0,2.9367456E0,0E0,0E0,0E0,0E0,0E0,0E0,0E0,0E0],"parents":[2147483647,0,0,1,1,2,2,3,3,4,4,5,5,6,6],"right_children":[2,4,6,8,10,12,14,-1,-1,-1,-1,-1,-1,-1,-1],"split_conditions":[5.1E1,1.9E2,3.35E2,1.39E2,1E0,4.6E2,9.1E1,2.0979969E-2,-2.873152E-2,3.604065E-2,8.217644E-3,-2.1397395E-2,2.189976E-3,4.1391727E-2,-7.826274E-3],"split_indices":[5,9,9,9,12,3,8,0,0,0,0,0,0,0,0],"split_type":[0,0,0,0,0,0,0,0,0,0,0,0,0,0,0],"sum_hessian":[1.1314786E2,5.712787E1,5.601999E1,1.2505299E1,4.462257E1,4.397321E1,1.2046782E1,3.3843107E0,9.120988E0,1.6847893E1,2.7774675E1,3.6660557E1,7.3126526E0,3.5013373E0,8.5454445E0],"tree_param":{"num_deleted":"0","num_feature":"15","num_nodes":"15","size_leaf_vector":"1"}},{"base_weights":[-1.5108894E-3,1.5449527E-1,-3.0409816E-1,7.793672E-2,6.914505E-1,-3.5240896E-2,-6.231359E-2,9.711523E-3,-1.9084267E-2,-4.2913617E-3,3.9923467E-2,5.505379E-3,-3.217454E-2],"categories":[],"categories_nodes":[],"categories_segments":[],"categories_sizes":[],"default_left":[0,1,1,1,0,0,0,0,0,0,0,0,0],"id":22,"left_children":[1,3,5,7,9,-1,11,-1,-1,-1,-1,-1,-1],"loss_changes":[7.361501E0,4.17626E0,5.095848E0,4.9482527E0,1.1261063E0,0E0,3.4961944E0,0E0,0E0,0E0,0E0,0E0,0E0],"parents":[2147483647,0,0,1,1,2,2,3,3,4,4,6,6],"right_children":[2,4,6,8,10,-1,12,-1,-1,-1,-1,-1,-1],"split_conditions":[1.1E1,1.64E2,8.58E2,1.692E3,3.37E1,-3.5240896E-2,1E0,9.711523E-3,-1.9084267E-2,-4.2913617E-3,3.9923467E-2,5.505379E-3,-3.217454E-2],"split_indices":[10,8,6,6,0,0,11,0,0,0,0,0,0],"split_type":[0,0,0,0,0,0,0,0,0,0,0,0,0],"sum_hessian":[1.5395065E2,1.0190203E2,5.2048626E1,9.018823E1,1.1713802E1,1.8866055E1,3.3182568E1,7.2437485E1,1.7750746E1,1.4415852E0,1.0272218E1,2.6215586E1,6.966984E0],"tree_param":{"num_deleted":"0","num_feature":"15","num_nodes":"13","size_leaf_vector":"1"}},{"base_weights":[-9.07905E-4,-2.573446E-1,3.6806628E-1,1.4603487E-1,-4.238189E-1,-4.0273834E-3,6.9489527E-1,-4.3695862E-3,2.9691339E-2,3.3982452E-3,-2.6315877E-2,-1.9549659E-2,1.04348E-2,4.514915E-2,1.2688558E-2],"categories":[],"categories_nodes":[],"categories_segments":[],"categories_sizes":[],"default_left":[1,0,0,1,0,0,1,0,0,0,0,0,0,0,0],"id":23,"left_children":[1,3,5,7,9,11,13,-1,-1,-1,-1,-1,-1,-1,-1],"loss_changes":[1.425067E1,6.028679E0,7.5130386E0,2.8428855E0,3.2191496E0,2.540611E0,2.7893257E0,0E0,0E0,0E0,0E0,0E0,0E0,0E0,0E0],"parents":[2147483647,0,0,1,1,2,2,3,3,4,4,5,5,6,6],"right_children":[2,4,6,8,10,12,14,-1,-1,-1,-1,-1,-1,-1,-1],"split_conditions":[1E0,3.35E0,1.1E1,2.86E2,1.9E2,5.4E1,3.56E2,-4.3695862E-3,2.9691339E-2,3.3982452E-3,-2.6315877E-2,-1.9549659E-2,1.04348E-2,4.514915E-2,1.2688558E-2],"split_indices":[12,4,10,9,9,5,3,0,0,0,0,0,0,0,0],"split_type":[0,0,0,0,0,0,0,0,0,0,0,0,0,0,0],"sum_hessian":[1.4861078E2,8.7854515E1,6.075626E1,2.5701258E1,6.215326E1,2.8872591E1,3.1883669E1,1.7423508E1,8.27775E0,1.0777974E1,5.1375286E1,9.944493E0,1.8928097E1,2.0952784E1,1.0930884E1],"tree_param":{"num_deleted":"0","num_feature":"15","num_nodes":"15","size_leaf_vector":"1"}},{"base_weights":[9.511674E-3,8.536854E-1,-1.7930856E-1,1.3122166E0,-1.5936455E-2,-4.2569065E-1,1.2679198E-1,8.4732994E-2,7.6441593E-3,1.0875364E-2,-2.4387611E-2,2.4461355E-2,-2.1639358E-2],"categories":[],"categories_nodes":[],"categories_segments":[],"categories_sizes":[],"default_left":[0,0,1,0,0,0,1,0,0,0,0,0,0],"id":24,"left_children":[1,3,5,7,-1,9,11,-1,-1,-1,-1,-1,-1],"loss_changes":[5.3517103E0,3.7164235E0,2.1263952E0,1.78299E0,0E0,7.2299004E-1,2.853345E0,0E0,0E0,0E0,0E0,0E0,0E0],"parents":[2147483647,0,0,1,1,2,2,3,3,5,5,6,6],"right_children":[2,4,6,8,-1,10,12,-1,-1,-1,-1,-1,-1],"split_conditions":[7.224E1,1E0,2.65E2,2.55E2,-1.5936455E-2,3.69E1,1.11E2,8.4732994E-2,7.6441593E-3,1.0875364E-2,-2.4387611E-2,2.4461355E-2,-2.1639358E-2],"split_indices":[7,12,9,3,0,0,8,0,0,0,0,0,0],"split_type":[0,0,0,0,0,0,0,0,0,0,0,0,0],"sum_hessian":[3.1614382E1,5.135142E0,2.647924E1,3.605707E0,1.5294348E0,1.44542465E1,1.2024994E1,2.3640845E0,1.2416224E0,1.0515382E0,1.3402708E1,7.374385E0,4.6506095E0],"tree_param":{"num_deleted":"0","num_feature":"15","num_nodes":"13","size_leaf_vector":"1"}},{"base_weights":[1.060098E-3,-6.722065E-2,7.7801406E-1,1.05201304E-1,-3.1866553E-1,1.0158025E0,-1.8171674E-2,2.8288288E-2,-1.4851512E-3,-2.9353738E-2,-8.165212E-3,5.9255987E-2,1.4310844E-2],"categories":[],"categories_nodes":[],"categories_segments":[],"categories_sizes":[],"default_left":[0,0,1,0,0,0,0,0,0,0,0,0,0],"id":25,"left_children":[1,3,5,7,9,11,-1,-1,-1,-1,-1,-1,-1],"loss_changes":[6.1003666E0,4.616783E0,2.8904781E0,3.9599624E0,1.7077346E0,6.430216E-1,0E0,0E0,0E0,0E0,0E0,0E0,0E0],"parents":[2147483647,0,0,1,1,2,2,3,3,4,4,5,5],"right_children":[2,4,6,8,10,12,-1,-1,-1,-1,-1,-1,-1],"split_conditions":[4.45E2,1.08E1,2.412E3,9.1E1,2.98E2,5.41E1,-1.8171674E-2,2.8288288E-2,-1.4851512E-3,-2.9353738E-2,-8.165212E-3,5.9255987E-2,1.4310844E-2],"split_indices":[9,10,6,8,3,0,0,0,0,0,0,0,0],"split_type":[0,0,0,0,0,0,0,0,0,0,0,0,0],"sum_hessian":[1.1300478E2,1.0471558E2,8.289198E0,6.2464058E1,4.225153E1,6.951189E0,1.3380094E0,1.3427758E1,4.90363E1,1.4471368E1,2.7780163E1,5.1350965E0,1.8160924E0],"tree_param":{"num_deleted":"0","num_feature":"15","num_nodes":"13","size_leaf_vector":"1"}},{"base_weights":[-1.7199715E-3,1.4819834E-1,-2.954612E-1,2.9334003E-1,-1.1913915E-1,-3.4730654E-2,-5.7349034E-2,1.818204E-2,-2.4016766E-2,-1.0369206E-2,3.9596945E-2,-7.892649E-3,4.506735E-2],"categories":[],"categories_nodes":[],"categories_segments":[],"categories_sizes":[],"default_left":[0,0,1,0,1,0,0,0,0,0,0,0,0],"id":26,"left_children":[1,3,5,7,9,-1,11,-1,-1,-1,-1,-1,-1],"loss_changes":[6.856169E0,4.0349607E0,4.9601707E0,3.8243866E0,3.1377974E0,0E0,3.4222283E0,0E0,0E0,0E0,0E0,0E0,0E0],"parents":[2147483647,0,0,1,1,2,2,3,3,4,4,6,6],"right_children":[2,4,6,8,10,-1,12,-1,-1,-1,-1,-1,-1],"split_conditions":[1.1E1,5.44E1,8.58E2,4.3E2,2.13E2,-3.4730654E-2,4.12E2,1.818204E-2,-2.4016766E-2,-1.0369206E-2,3.9596945E-2,-7.892649E-3,4.506735E-2],"split_indices":[10,0,6,9,8,0,9,0,0,0,0,0,0],"split_type":[0,0,0,0,0,0,0,0,0,0,0,0,0],"sum_hessian":[1.5369614E2,1.0208827E2,5.1607864E1,6.6102776E1,3.5985497E1,1.8566809E1,3.3041054E1,6.1082443E1,5.020333E0,3.351198E1,2.4735193E0,3.0661983E1,2.3790715E0],"tree_param":{"num_deleted":"0","num_feature":"15","num_nodes":"13","size_leaf_vector":"1"}},{"base_weights":[-1.1059105E-3,-2.5124055E-1,3.55523E-1,-4.1182473E-1,1.6202576E-1,-3.828728E-3,6.6883135E-1,-2.468833E-3,-2.6991477E-2,-1.1211962E-2,2.5931308E-2,8.933394E-3,-2.237091E-2,3.6571044E-2,-2.2447351E-2],"categories":[],"categories_nodes":[],"categories_segments":[],"categories_sizes":[],"default_left":[1,0,0,0,0,0,0,0,0,0,0,0,0,0,0],"id":27,"left_children":[1,3,5,7,9,11,13,-1,-1,-1,-1,-1,-1,-1,-1],"loss_changes":[1.3398557E1,5.9252043E0,6.9740043E0,2.9359894E0,3.6178432E0,2.4951982E0,2.6430264E0,0E0,0E0,0E0,0E0,0E0,0E0,0E0,0E0],"parents":[2147483647,0,0,1,1,2,2,3,3,4,4,5,5,6,6],"right_children":[2,4,6,8,10,12,14,-1,-1,-1,-1,-1,-1,-1,-1],"split_conditions":[1E0,5.8E1,1.1E1,3.35E0,1E0,3.18E2,4.12E2,-2.468833E-3,-2.6991477E-2,-1.1211962E-2,2.5931308E-2,8.933394E-3,-2.237091E-2,3.6571044E-2,-2.2447351E-2],"split_indices":[12,0,10,4,11,9,9,0,0,0,0,0,0,0,0],"split_type":[0,0,0,0,0,0,0,0,0,0,0,0,0,0,0],"sum_hessian":[1.4819789E2,8.727789E1,6.0920002E1,6.2856884E1,2.4421007E1,2.8835108E1,3.2084896E1,1.676688E1,4.6090004E1,1.1901081E1,1.2519926E1,2.0853157E1,7.9819503E0,3.0710901E1,1.3739948E0],"tree_param":{"num_deleted":"0","num_feature":"15","num_nodes":"15","size_leaf_vector":"1"}},{"base_weights":[1.0093365E-2,9.195967E-1,-1.5552749E-1,8.535032E-2,-6.116118E-2,-3.5115E-1,2.999984E-1,-1.4767169E-2,1.1643018E-2,-5.4045203E-3,-2.416027E-2,3.9486665E-2,-1.147218E-2],"categories":[],"categories_nodes":[],"categories_segments":[],"categories_sizes":[],"default_left":[0,0,1,0,0,1,1,0,0,0,0,0,0],"id":28,"left_children":[1,3,5,-1,7,9,11,-1,-1,-1,-1,-1,-1],"loss_changes":[5.046468E0,4.088704E0,2.6354804E0,0E0,2.934443E-1,6.0010767E-1,2.5327473E0,0E0,0E0,0E0,0E0,0E0,0E0],"parents":[2147483647,0,0,1,1,2,2,4,4,5,5,6,6],"right_children":[2,4,6,-1,8,10,12,-1,-1,-1,-1,-1,-1],"split_conditions":[6.708E1,4.97E1,3.12E2,8.535032E-2,5.676E1,5.8E1,2.58E2,-1.4767169E-2,1.1643018E-2,-5.4045203E-3,-2.416027E-2,3.9486665E-2,-1.147218E-2],"split_indices":[7,0,9,0,7,8,3,0,0,0,0,0,0],"split_type":[0,0,0,0,0,0,0,0,0,0,0,0,0],"sum_hessian":[3.155233E1,4.1592855E0,2.7393045E1,1.8963153E0,2.26297E0,1.9323732E1,8.069314E0,1.2571666E0,1.0058033E0,7.442913E0,1.1880818E1,3.9364533E0,4.13286E0],"tree_param":{"num_deleted":"0","num_feature":"15","num_nodes":"13","size_leaf_vector":"1"}},{"base_weights":[1.2805326E-3,2.2159144E-1,-2.2880636E-1,-2.8794917E-1,3.6363867E-1,-3.4119478E-1,1.685385E-1,2.0633742E-2,-2.8478194E-2,3.3711445E-2,7.727594E-3,-2.0944884E-2,2.2173459E-3,3.9896447E-2,-7.6487134E-3],"categories":[],"categories_nodes":[],"categories_segments":[],"categories_sizes":[],"default_left":[1,0,1,0,0,1,1,0,0,0,0,0,0,0,0],"id":29,"left_children":[1,3,5,7,9,11,13,-1,-1,-1,-1,-1,-1,-1,-1],"loss_changes":[5.8204575E0,4.350069E0,2.5658038E0,2.8680754E0,2.90317E0,1.340148E0,2.7635472E0,0E0,0E0,0E0,0E0,0E0,0E0,0E0,0E0],"parents":[2147483647,0,0,1,1,2,2,3,3,4,4,5,5,6,6],"right_children":[2,4,6,8,10,12,14,-1,-1,-1,-1,-1,-1,-1,-1],"split_conditions":[5.1E1,1.9E2,3.35E2,1.39E2,1E0,4.6E2,9.1E1,2.0633742E-2,-2.8478194E-2,3.3711445E-2,7.727594E-3,-2.0944884E-2,2.2173459E-3,3.9896447E-2,-7.6487134E-3],"split_indices":[5,9,9,9,12,3,8,0,0,0,0,0,0,0,0],"split_type":[0,0,0,0,0,0,0,0,0,0,0,0,0,0,0],"sum_hessian":[1.12822876E2,5.7654724E1,5.516815E1,1.2344907E1,4.5309814E1,4.311457E1,1.2053582E1,3.405941E0,8.938966E0,1.7334887E1,2.797493E1,3.581069E1,7.303881E0,3.5744588E0,8.479123E0],"tree_param":{"num_deleted":"0","num_feature":"15","num_nodes":"15","size_leaf_vector":"1"}},{"base_weights":[-1.521134E-3,1.428657E-1,-2.8710112E-1,1.4140029E-2,4.3141708E-1,-3.428799E-2,-5.1866364E-2,7.71876E-3,-3.6325485E-2,1.4879416E-2,4.397675E-2,5.7787397E-3,-3.1393223E-2],"categories":[],"categories_nodes":[],"categories_segments":[],"categories_sizes":[],"default_left":[0,1,1,1,0,0,0,0,0,0,0,0,0],"id":30,"left_children":[1,3,5,7,9,-1,11,-1,-1,-1,-1,-1,-1],"loss_changes":[6.407193E0,3.8276448E0,4.8576336E0,7.632698E0,1.6457181E0,0E0,3.341792E0,0E0,0E0,0E0,0E0,0E0,0E0],"parents":[2147483647,0,0,1,1,2,2,3,3,4,4,6,6],"right_children":[2,4,6,8,10,-1,12,-1,-1,-1,-1,-1,-1],"split_conditions":[1.1E1,1.16E2,8.58E2,1.664E3,1.63E2,-3.428799E-2,1E0,7.71876E-3,-3.6325485E-2,1.4879416E-2,4.397675E-2,5.7787397E-3,-3.1393223E-2],"split_indices":[10,8,6,6,7,0,11,0,0,0,0,0,0],"split_type":[0,0,0,0,0,0,0,0,0,0,0,0,0],"sum_hessian":[1.5339146E2,1.0221311E2,5.1178352E1,7.1406815E1,3.0806295E1,1.828131E1,3.289704E1,6.070454E1,1.0702274E1,2.500325E1,5.8030443E0,2.6107117E1,6.789923E0],"tree_param":{"num_deleted":"0","num_feature":"15","num_nodes":"13","size_leaf_vector":"1"}},{"base_weights":[-1.6096986E-3,-2.4590784E-1,3.438301E-1,-4.0326434E-1,1.5384576E-1,-1.1912619E-3,6.422533E-1,-2.358233E-3,-2.6522353E-2,2.2207212E-2,-1.4716424E-2,8.8569075E-3,-2.1949094E-2,4.1946646E-2,1.1300815E-2],"categories":[],"categories_nodes":[],"categories_segments":[],"categories_sizes":[],"default_left":[1,0,0,0,0,0,1,0,0,0,0,0,0,0,0],"id":31,"left_children":[1,3,5,7,9,11,13,-1,-1,-1,-1,-1,-1,-1,-1],"loss_changes":[1.2638811E1,5.5800824E0,6.388794E0,2.8382368E0,3.4485161E0,2.4021494E0,2.5340128E0,0E0,0E0,0E0,0E0,0E0,0E0,0E0,0E0],"parents":[2147483647,0,0,1,1,2,2,3,3,4,4,5,5,6,6],"right_children":[2,4,6,8,10,12,14,-1,-1,-1,-1,-1,-1,-1,-1],"split_conditions":[1E0,5.8E1,1.1E1,3.35E0,3.53E0,3.18E2,3.56E2,-2.358233E-3,-2.6522353E-2,2.2207212E-2,-1.4716424E-2,8.8569075E-3,-2.1949094E-2,4.1946646E-2,1.1300815E-2],"split_indices":[12,0,10,4,4,9,3,0,0,0,0,0,0,0,0],"split_type":[0,0,0,0,0,0,0,0,0,0,0,0,0,0,0],"sum_hessian":[1.4776425E2,8.6721886E1,6.104237E1,6.222087E1,2.4501017E1,2.877278E1,3.226959E1,1.6735075E1,4.5485798E1,1.4874964E1,9.626053E0,2.0867859E1,7.9049215E0,2.1224907E1,1.1044682E1],"tree_param":{"num_deleted":"0","num_feature":"15","num_nodes":"15","size_leaf_vector":"1"}},{"base_weights":[1.1146907E-2,8.8277626E-1,-1.5267555E-1,8.0018714E-2,-5.903023E-2,-4.2592978E-1,1.7116907E-1,-1.4692992E-2,1.16411755E-2,8.704863E-3,-2.4352951E-2,2.615138E-2,-2.1531157E-2],"categories":[],"categories_nodes":[],"categories_segments":[],"categories_sizes":[],"default_left":[0,0,1,0,0,0,1,0,0,0,0,0,0],"id":32,"left_children":[1,3,5,-1,7,9,11,-1,-1,-1,-1,-1,-1],"loss_changes":[4.770171E0,3.665226E0,2.5665197E0,0E0,2.9110545E-1,6.5588784E-1,3.1068904E0,0E0,0E0,0E0,0E0,0E0,0E0],"parents":[2147483647,0,0,1,1,2,2,4,4,5,5,6,6],"right_children":[2,4,6,-1,8,10,12,-1,-1,-1,-1,-1,-1],"split_conditions":[6.708E1,4.97E1,2.65E2,8.0018714E-2,5.7E1,3.51E1,1.11E2,-1.4692992E-2,1.16411755E-2,8.704863E-3,-2.4352951E-2,2.615138E-2,-2.1531157E-2],"split_indices":[7,0,9,0,0,0,8,0,0,0,0,0,0],"split_type":[0,0,0,0,0,0,0,0,0,0,0,0,0],"sum_hessian":[3.1462448E1,4.283446E0,2.7179003E1,2.0342295E0,2.2492163E0,1.456993E1,1.2609073E1,1.2425609E0,1.0066555E0,1.1762427E0,1.3393687E1,8.039428E0,4.5696445E0],"tree_param":{"num_deleted":"0","num_feature":"15","num_nodes":"13","size_leaf_vector":"1"}},{"base_weights":[1.5335061E-3,4.829958E-1,-9.8443024E-2,2.8212714E-1,6.0120165E-2,7.806228E-2,-3.5329407E-1,3.562866E-2,-7.3868968E-3,-1.9292234E-3,2.7517328E-2,-1.986976E-2,2.7278414E-2],"categories":[],"categories_nodes":[],"categories_segments":[],"categories_sizes":[],"default_left":[0,0,1,1,0,1,0,0,0,0,0,0,0],"id":33,"left_children":[1,3,5,7,-1,9,11,-1,-1,-1,-1,-1,-1],"loss_changes":[5.517338E0,2.50876E0,4.2976E0,3.197783E0,0E0,3.1560254E0,1.7637291E0,0E0,0E0,0E0,0E0,0E0,0E0],"parents":[2147483647,0,0,1,1,2,2,3,3,5,5,6,6],"right_children":[2,4,6,8,-1,10,12,-1,-1,-1,-1,-1,-1],"split_conditions":[7E-1,4.45E2,1E0,5.735E1,6.0120165E-2,1.692E3,9.9332E3,3.562866E-2,-7.3868968E-3,-1.9292234E-3,2.7517328E-2,-1.986976E-2,2.7278414E-2],"split_indices":[2,9,12,7,0,6,6,0,0,0,0,0,0],"split_type":[0,0,0,0,0,0,0,0,0,0,0,0,0],"sum_hessian":[1.1263453E2,1.87084E1,9.392613E1,1.5713216E1,2.9951842E0,5.5902645E1,3.8023483E1,7.522691E0,8.190525E0,4.5566696E1,1.033595E1,3.6776978E1,1.2465073E0],"tree_param":{"num_deleted":"0","num_feature":"15","num_nodes":"13","size_leaf_vector":"1"}},{"base_weights":[-1.6415294E-3,1.3724567E-1,-2.7912292E-1,2.8839925E-1,-9.721804E-2,-3.383339E-2,-4.7417797E-2,1.8090544E-2,-2.36664E-2,2.625197E-2,-1.0507633E-2,5.7953848E-3,-3.0902982E-2],"categories":[],"categories_nodes":[],"categories_segments":[],"categories_sizes":[],"default_left":[0,0,1,0,0,0,0,0,0,0,0,0,0],"id":34,"left_children":[1,3,5,7,9,-1,11,-1,-1,-1,-1,-1,-1],"loss_changes":[5.975945E0,3.6906734E0,4.732225E0,3.6992035E0,3.009708E0,0E0,3.2173636E0,0E0,0E0,0E0,0E0,0E0,0E0],"parents":[2147483647,0,0,1,1,2,2,3,3,4,4,6,6],"right_children":[2,4,6,8,10,-1,12,-1,-1,-1,-1,-1,-1],"split_conditions":[1.1E1,5.3E1,8.58E2,4.3E2,3.04E0,-3.383339E-2,1E0,1.8090544E-2,-2.36664E-2,2.625197E-2,-1.0507633E-2,5.7953848E-3,-3.0902982E-2],"split_indices":[10,0,6,9,4,0,11,0,0,0,0,0,0],"split_type":[0,0,0,0,0,0,0,0,0,0,0,0,0],"sum_hessian":[1.5306981E2,1.02347435E2,5.072237E1,6.2089603E1,4.025783E1,1.7970078E1,3.2752293E1,5.7110573E1,4.9790316E0,5.6235623E0,3.463427E1,2.608367E1,6.6686215E0],"tree_param":{"num_deleted":"0","num_feature":"15","num_nodes":"13","size_leaf_vector":"1"}},{"base_weights":[-1.9101796E-3,-2.4047565E-1,3.3275142E-1,-4.1832918E-1,1.0144852E-1,-5.638922E-4,6.1969906E-1,-3.3433698E-3,-2.7501902E-2,-6.2000914E-3,3.5427522E-2,-1.8802946E-2,1.008687E-2,3.4756422E-2,-1.3378962E-2],"categories":[],"categories_nodes":[],"categories_segments":[],"categories_sizes":[],"default_left":[1,0,0,0,0,0,0,0,0,0,0,0,0,0,0],"id":35,"left_children":[1,3,5,7,9,11,13,-1,-1,-1,-1,-1,-1,-1,-1],"loss_changes":[1.1916987E1,5.341528E0,5.942019E0,2.6257257E0,4.279016E0,2.3348918E0,2.4203043E0,0E0,0E0,0E0,0E0,0E0,0E0,0E0,0E0],"parents":[2147483647,0,0,1,1,2,2,3,3,4,4,5,5,6,6],"right_children":[2,4,6,8,10,12,14,-1,-1,-1,-1,-1,-1,-1,-1],"split_conditions":[1E0,5.6E1,1.1E1,3.35E0,2.5E0,5.4E1,4.01E2,-3.3433698E-3,-2.7501902E-2,-6.2000914E-3,3.5427522E-2,-1.8802946E-2,1.008687E-2,3.4756422E-2,-1.3378962E-2],"split_indices":[12,0,10,4,2,5,9,0,0,0,0,0,0,0,0],"split_type":[0,0,0,0,0,0,0,0,0,0,0,0,0,0,0],"sum_hessian":[1.4726102E2,8.6138275E1,6.1122734E1,5.651715E1,2.9621124E1,2.873847E1,3.2384266E1,1.5817161E1,4.069999E1,2.2180159E1,7.4409657E0,9.76135E0,1.897712E1,3.004651E1,2.3377542E0],"tree_param":{"num_deleted":"0","num_feature":"15","num_nodes":"15","size_leaf_vector":"1"}},{"base_weights":[1.1852259E-2,7.552943E-1,-1.7060485E-1,1.1463839E0,-1.5979355E-2,-2.3928631E-2,6.681403E-2,1.4787204E-2,8.1017815E-2,1.7744368E-2,-2.2002866E-2],"categories":[],"categories_nodes":[],"categories_segments":[],"categories_sizes":[],"default_left":[0,0,1,0,0,0,1,0,0,0,0],"id":36,"left_children":[1,3,5,7,-1,-1,9,-1,-1,-1,-1],"loss_changes":[4.52212E0,3.1267803E0,1.993063E0,1.5498872E0,0E0,0E0,2.4957533E0,0E0,0E0,0E0,0E0],"parents":[2147483647,0,0,1,1,2,2,3,3,6,6],"right_children":[2,4,6,8,-1,-1,10,-1,-1,-1,-1],"split_conditions":[7.224E1,1E0,2.33E2,3.85E0,-1.5979355E-2,-2.3928631E-2,1.11E2,1.4787204E-2,8.1017815E-2,1.7744368E-2,-2.2002866E-2],"split_indices":[7,12,9,4,0,0,8,0,0,0,0],"split_type":[0,0,0,0,0,0,0,0,0,0,0],"sum_hessian":[3.1387636E1,5.566546E0,2.582109E1,4.0327363E0,1.5338097E0,1.0798322E1,1.5022769E1,2.024081E0,2.0086553E0,9.769982E0,5.2527866E0],"tree_param":{"num_deleted":"0","num_feature":"15","num_nodes":"11","size_leaf_vector":"1"}},{"base_weights":[2.114707E-3,2.0931616E-1,-2.1981691E-1,-2.83467E-1,3.4365758E-1,-3.3134437E-1,1.6579753E-1,2.0199956E-2,-2.8284794E-2,3.148386E-2,7.3580444E-3,-2.0511342E-2,2.3103221E-3,3.8603585E-2,-7.5240256E-3],"categories":[],"categories_nodes":[],"categories_segments":[],"categories_sizes":[],"default_left":[1,0,1,0,0,0,1,0,0,0,0,0,0,0,0],"id":37,"left_children":[1,3,5,7,9,11,13,-1,-1,-1,-1,-1,-1,-1,-1],"loss_changes":[5.2608824E0,4.013943E0,2.4307864E0,2.7937818E0,2.545434E0,1.3050699E0,2.6204052E0,0E0,0E0,0E0,0E0,0E0,0E0,0E0,0E0],"parents":[2147483647,0,0,1,1,2,2,3,3,4,4,5,5,6,6],"right_children":[2,4,6,8,10,12,14,-1,-1,-1,-1,-1,-1,-1,-1],"split_conditions":[5.1E1,1.9E2,3.35E2,1.39E2,1E0,1.86E2,9.1E1,2.0199956E-2,-2.8284794E-2,3.148386E-2,7.3580444E-3,-2.0511342E-2,2.3103221E-3,3.8603585E-2,-7.5240256E-3],"split_indices":[5,9,9,9,12,7,8,0,0,0,0,0,0,0,0],"split_type":[0,0,0,0,0,0,0,0,0,0,0,0,0,0,0],"sum_hessian":[1.1240484E2,5.8160984E1,5.4243855E1,1.222134E1,4.5939644E1,4.2184097E1,1.2059754E1,3.4314344E0,8.7899065E0,1.7810398E1,2.8129246E1,3.4822098E1,7.362001E0,3.6403813E0,8.419373E0],"tree_param":{"num_deleted":"0","num_feature":"15","num_nodes":"15","size_leaf_vector":"1"}},{"base_weights":[-1.8496466E-3,1.3156265E-1,-2.71057E-1,6.0581088E-2,6.269233E-1,-3.3429887E-2,-4.1895136E-2,8.538552E-3,-1.894671E-2,-5.738383E-3,3.6612954E-2,-6.999535E-3,4.3309893E-2],"categories":[],"categories_nodes":[],"categories_segments":[],"categories_sizes":[],"default_left":[0,1,1,1,0,0,0,0,0,0,0,0,0],"id":38,"left_children":[1,3,5,7,9,-1,11,-1,-1,-1,-1,-1,-1],"loss_changes":[5.557374E0,3.6002078E0,4.6428056E0,4.501372E0,1.0888553E0,0E0,3.1134288E0,0E0,0E0,0E0,0E0,0E0,0E0],"parents":[2147483647,0,0,1,1,2,2,3,3,4,4,6,6],"right_children":[2,4,6,8,10,-1,12,-1,-1,-1,-1,-1,-1],"split_conditions":[1.1E1,1.64E2,8.58E2,1.692E3,3.37E1,-3.3429887E-2,4.12E2,8.538552E-3,-1.894671E-2,-5.738383E-3,3.6612954E-2,-6.999535E-3,4.3309893E-2],"split_indices":[10,8,6,6,0,0,9,0,0,0,0,0,0],"split_type":[0,0,0,0,0,0,0,0,0,0,0,0,0],"sum_hessian":[1.5274147E2,1.0247083E2,5.0270638E1,9.060946E1,1.1861377E1,1.7680918E1,3.2589718E1,7.2935425E1,1.767403E1,1.4639388E0,1.0397438E1,3.0175854E1,2.4138665E0],"tree_param":{"num_deleted":"0","num_feature":"15","num_nodes":"13","size_leaf_vector":"1"}},{"base_weights":[-2.2969316E-3,-2.3470946E-1,3.211241E-1,1.3210817E-1,-3.9260846E-1,-1.8899259E-4,5.966257E-1,-4.8844586E-3,2.862814E-2,-2.4863569E-2,4.2479355E-3,8.555865E-3,-2.136009E-2,3.927896E-2,9.979861E-3],"categories":[],"categories_nodes":[],"categories_segments":[],"categories_sizes":[],"default_left":[1,0,0,1,0,0,1,0,0,0,0,0,0,0,0],"id":39,"left_children":[1,3,5,7,9,11,13,-1,-1,-1,-1,-1,-1,-1,-1],"loss_changes":[1.1179536E1,5.063974E0,5.505452E0,2.7673383E0,3.0785646E0,2.246282E0,2.355095E0,0E0,0E0,0E0,0E0,0E0,0E0,0E0,0E0],"parents":[2147483647,0,0,1,1,2,2,3,3,4,4,5,5,6,6],"right_children":[2,4,6,8,10,12,14,-1,-1,-1,-1,-1,-1,-1,-1],"split_conditions":[1E0,3.35E0,1.1E1,2.86E2,2.6E0,3.18E2,3.56E2,-4.8844586E-3,2.862814E-2,-2.4863569E-2,4.2479355E-3,8.555865E-3,-2.136009E-2,3.927896E-2,9.979861E-3],"split_indices":[12,4,10,9,2,9,3,0,0,0,0,0,0,0,0],"split_type":[0,0,0,0,0,0,0,0,0,0,0,0,0,0,0],"sum_hessian":[1.4672638E2,8.553479E1,6.1191586E1,2.5788488E1,5.9746304E1,2.870856E1,3.2483025E1,1.7458248E1,8.33024E0,4.8972336E1,1.0773968E1,2.0916628E1,7.791932E0,2.1345594E1,1.1137431E1],"tree_param":{"num_deleted":"0","num_feature":"15","num_nodes":"15","size_leaf_vector":"1"}},{"base_weights":[1.23972725E-2,2.8058282E-1,-2.3942241E-2,1.2498764E0,4.4981692E-2,8.6245336E-2,6.3267173E-3,-2.287889E-2,1.9199265E-2],"categories":[],"categories_nodes":[],"categories_segments":[],"categories_sizes":[],"default_left":[1,0,0,0,1,0,0,0,0],"id":40,"left_children":[1,3,-1,5,7,-1,-1,-1,-1],"loss_changes":[4.392734E0,4.8625703E0,0E0,2.009256E0,3.304484E0,0E0,0E0,0E0,0E0],"parents":[2147483647,0,0,1,1,3,3,4,4],"right_children":[2,4,-1,6,8,-1,-1,-1,-1],"split_conditions":[1E0,6.708E1,-2.3942241E-2,4.97E1,2.33E2,8.6245336E-2,6.3267173E-3,-2.287889E-2,1.9199265E-2],"split_indices":[12,7,0,0,9,0,0,0,0],"split_type":[0,0,0,0,0,0,0,0,0],"sum_hessian":[3.132312E1,2.0539013E1,1.0784107E1,3.1743352E0,1.7364677E1,1.8545737E0,1.3197615E0,6.854048E0,1.0510631E1],"tree_param":{"num_deleted":"0","num_feature":"15","num_nodes":"9","size_leaf_vector":"1"}},{"base_weights":[2.298863E-3,-6.54992E-2,6.593129E-1,9.350754E-2,-3.0372795E-1,8.992427E-1,-1.9869214E-2,2.6368067E-2,-1.9453907E-3,-1.4840724E-3,-2.2695193E-2,2.9464585E-3,5.116127E-2],"categories":[],"categories_nodes":[],"categories_segments":[],"categories_sizes":[],"default_left":[0,0,1,0,0,0,0,0,0,0,0,0,0],"id":41,"left_children":[1,3,5,7,9,11,-1,-1,-1,-1,-1,-1,-1],"loss_changes":[5.0856776E0,3.949838E0,3.064859E0,3.631118E0,1.7016199E0,8.783541E-1,0E0,0E0,0E0,0E0,0E0,0E0,0E0],"parents":[2147483647,0,0,1,1,2,2,3,3,4,4,5,5],"right_children":[2,4,6,8,10,12,-1,-1,-1,-1,-1,-1,-1],"split_conditions":[4.32E2,1.08E1,2.96E2,9.1E1,4.65E1,3.01E0,-1.9869214E-2,2.6368067E-2,-1.9453907E-3,-1.4840724E-3,-2.2695193E-2,2.9464585E-3,5.116127E-2],"split_indices":[9,10,3,8,0,4,0,0,0,0,0,0,0],"split_type":[0,0,0,0,0,0,0,0,0,0,0,0,0],"sum_hessian":[1.1220181E2,1.0252268E2,9.679131E0,6.1848885E1,4.0673798E1,8.009523E0,1.6696072E0,1.3765179E1,4.8083706E1,1.4822604E1,2.5851194E1,1.2194952E0,6.7900286E0],"tree_param":{"num_deleted":"0","num_feature":"15","num_nodes":"13","size_leaf_vector":"1"}},{"base_weights":[-1.7741433E-3,-1.1733531E-1,2.9941767E-1,1.816801E-2,-3.951808E-1,4.145718E-1,-2.8388236E-2,7.336702E-3,-3.5620105E-2,-2.30096E-2,2.6890958E-2,1.3415515E-2,3.977237E-2],"categories":[],"categories_nodes":[],"categories_segments":[],"categories_sizes":[],"default_left":[1,0,0,1,0,0,0,0,0,0,0,0,0],"id":42,"left_children":[1,3,5,7,9,11,-1,-1,-1,-1,-1,-1,-1],"loss_changes":[5.3730593E0,4.207103E0,4.510088E0,7.2374153E0,2.468317E0,1.9239044E0,0E0,0E0,0E0,0E0,0E0,0E0,0E0],"parents":[2147483647,0,0,1,1,2,2,3,3,4,4,5,5],"right_children":[2,4,6,8,10,12,-1,-1,-1,-1,-1,-1,-1],"split_conditions":[1.23E2,1.1E1,1E0,1.692E3,6.8E1,1.63E2,-2.8388236E-2,7.336702E-3,-3.5620105E-2,-2.30096E-2,2.6890958E-2,1.3415515E-2,3.977237E-2],"split_indices":[8,10,11,6,0,7,0,0,0,0,0,0,0],"split_type":[0,0,0,0,0,0,0,0,0,0,0,0,0],"sum_hessian":[1.5236192E2,1.1055475E2,4.180718E1,7.49411E1,3.5613647E1,3.7367092E1,4.4400854E0,6.4406044E1,1.0535053E1,3.3767498E1,1.8461502E0,2.8230606E1,9.136485E0],"tree_param":{"num_deleted":"0","num_feature":"15","num_nodes":"13","size_leaf_vector":"1"}},{"base_weights":[-2.642397E-3,-2.2925735E-1,3.1047043E-1,-4.0496504E-1,1.0373101E-1,-5.060234E-4,5.7650197E-1,2.7359745E-2,-2.2351606E-2,-1.3722966E-2,2.1475896E-2,-1.837593E-2,9.736128E-3,3.7993573E-2,9.5896525E-3],"categories":[],"categories_nodes":[],"categories_segments":[],"categories_sizes":[],"default_left":[1,0,0,0,0,0,1,0,0,0,0,0,0,0,0],"id":43,"left_children":[1,3,5,7,9,11,13,-1,-1,-1,-1,-1,-1,-1,-1],"loss_changes":[1.0513397E1,5.0708227E0,5.1472797E0,2.5063381E0,3.8737907E0,2.1984186E0,2.2196836E0,0E0,0E0,0E0,0E0,0E0,0E0,0E0,0E0],"parents":[2147483647,0,0,1,1,2,2,3,3,4,4,5,5,6,6],"right_children":[2,4,6,8,10,12,14,-1,-1,-1,-1,-1,-1,-1,-1],"split_conditions":[1E0,5.6E1,1.1E1,2.8E0,1.3E0,5.4E1,3.56E2,2.7359745E-2,-2.2351606E-2,-1.3722966E-2,2.1475896E-2,-1.837593E-2,9.736128E-3,3.7993573E-2,9.5896525E-3],"split_indices":[12,0,10,4,2,5,3,0,0,0,0,0,0,0,0],"split_type":[0,0,0,0,0,0,0,0,0,0,0,0,0,0,0],"sum_hessian":[1.4616461E2,8.494999E1,6.121462E1,5.5466087E1,2.9483904E1,2.868339E1,3.2531227E1,1.838782E0,5.3627308E1,1.3717486E1,1.5766418E1,9.65338E0,1.9030008E1,2.1370102E1,1.1161126E1],"tree_param":{"num_deleted":"0","num_feature":"15","num_nodes":"15","size_leaf_vector":"1"}},{"base_weights":[1.3035008E-2,2.7142143E-1,-2.38554E-2,1.1884911E0,4.2331234E-2,8.116E-2,6.154339E-3,-2.2793988E-2,1.8319855E-2],"categories":[],"categories_nodes":[],"categories_segments":[],"categories_sizes":[],"default_left":[1,0,0,0,1,0,0,0,0],"id":44,"left_children":[1,3,-1,5,7,-1,-1,-1,-1],"loss_changes":[4.212911E0,4.5192137E0,0E0,1.7965302E0,3.1441875E0,0E0,0E0,0E0,0E0],"parents":[2147483647,0,0,1,1,3,3,4,4],"right_children":[2,4,-1,6,8,-1,-1,-1,-1],"split_conditions":[1E0,6.708E1,-2.38554E-2,4.97E1,2.33E2,8.116E-2,6.154339E-3,-2.2793988E-2,1.8319855E-2],"split_indices":[12,7,0,0,9,0,0,0,0],"split_type":[0,0,0,0,0,0,0,0,0],"sum_hessian":[3.1242664E1,2.0750145E1,1.0492518E1,3.3104055E0,1.7439741E1,1.9792669E0,1.3311386E0,6.7128367E0,1.0726903E1],"tree_param":{"num_deleted":"0","num_feature":"15","num_nodes":"9","size_leaf_vector":"1"}},{"base_weights":[2.4706174E-3,4.4724822E-1,-9.2915244E-2,2.6207513E-1,5.4764252E-2,6.9601566E-2,-3.375469E-1,3.351993E-2,-7.633263E-3,-5.9136255E-3,1.6969407E-2,-2.0044876E-2,1.6664956E-2],"categories":[],"categories_nodes":[],"categories_segments":[],"categories_sizes":[],"default_left":[0,0,1,1,0,1,0,0,0,0,0,0,0],"id":45,"left_children":[1,3,5,7,-1,9,11,-1,-1,-1,-1,-1,-1],"loss_changes":[4.8350906E0,2.1278214E0,3.7551844E0,2.9755468E0,0E0,2.9406848E0,1.7331424E0,0E0,0E0,0E0,0E0,0E0,0E0],"parents":[2147483647,0,0,1,1,2,2,3,3,5,5,6,6],"right_children":[2,4,6,8,-1,10,12,-1,-1,-1,-1,-1,-1],"split_conditions":[7E-1,4.45E2,1E0,5.735E1,5.4764252E-2,2.58E2,2.015E2,3.351993E-2,-7.633263E-3,-5.9136255E-3,1.6969407E-2,-2.0044876E-2,1.6664956E-2],"split_indices":[2,9,12,7,0,3,7,0,0,0,0,0,0],"split_type":[0,0,0,0,0,0,0,0,0,0,0,0,0],"sum_hessian":[1.1198712E2,1.9124075E1,9.286305E1,1.5966225E1,3.1578498E0,5.622586E1,3.6637188E1,7.7347336E0,8.231491E0,3.347567E1,2.2750193E1,3.384361E1,2.7935822E0],"tree_param":{"num_deleted":"0","num_feature":"15","num_nodes":"13","size_leaf_vector":"1"}},{"base_weights":[-1.7162572E-3,-1.14510916E-1,2.9091284E-1,1.6663866E-2,-3.8617608E-1,4.018498E-1,-2.7988452E-2,7.0879734E-3,-3.5126016E-2,-2.25461E-2,2.6392058E-2,-1.678049E-2,2.3060929E-2],"categories":[],"categories_nodes":[],"categories_segments":[],"categories_sizes":[],"default_left":[1,0,0,1,0,0,0,0,0,0,0,0,0],"id":46,"left_children":[1,3,5,7,9,11,-1,-1,-1,-1,-1,-1,-1],"loss_changes":[5.082996E0,3.9670596E0,4.268406E0,6.928987E0,2.3821902E0,1.8397489E0,0E0,0E0,0E0,0E0,0E0,0E0,0E0],"parents":[2147483647,0,0,1,1,2,2,3,3,4,4,5,5],"right_children":[2,4,6,8,10,12,-1,-1,-1,-1,-1,-1,-1],"split_conditions":[1.23E2,1.1E1,1E0,1.692E3,6.8E1,3.37E1,-2.7988452E-2,7.0879734E-3,-3.5126016E-2,-2.25461E-2,2.6392058E-2,-1.678049E-2,2.3060929E-2],"split_indices":[8,10,11,6,0,0,0,0,0,0,0,0,0],"split_type":[0,0,0,0,0,0,0,0,0,0,0,0,0],"sum_hessian":[1.5198827E2,1.101423E2,4.1845963E1,7.491022E1,3.5232086E1,3.7485157E1,4.3608055E0,6.449481E1,1.0415403E1,3.33746E1,1.8574862E0,2.4462051E0,3.503895E1],"tree_param":{"num_deleted":"0","num_feature":"15","num_nodes":"13","size_leaf_vector":"1"}},{"base_weights":[-2.981516E-3,-2.2399662E-1,3.0052537E-1,-3.971629E-1,1.00911915E-1,1.366035E-3,5.5556846E-1,-2.9830867E-3,-2.6382957E-2,2.9366968E-2,-7.2938725E-3,-2.4995334E-2,7.211812E-3,3.1372897E-2,-1.4008047E-2],"categories":[],"categories_nodes":[],"categories_segments":[],"categories_sizes":[],"default_left":[1,0,0,0,1,0,0,0,0,0,0,0,0,0,0],"id":47,"left_children":[1,3,5,7,9,11,13,-1,-1,-1,-1,-1,-1,-1,-1],"loss_changes":[9.896104E0,4.8425384E0,4.7425065E0,2.4297714E0,3.7438836E0,2.1928046E0,2.1918068E0,0E0,0E0,0E0,0E0,0E0,0E0,0E0,0E0],"parents":[2147483647,0,0,1,1,2,2,3,3,4,4,5,5,6,6],"right_children":[2,4,6,8,10,12,14,-1,-1,-1,-1,-1,-1,-1,-1],"split_conditions":[1E0,5.6E1,1.1E1,3.35E0,1.9E2,4.06E1,4.01E2,-2.9830867E-3,-2.6382957E-2,2.9366968E-2,-7.2938725E-3,-2.4995334E-2,7.211812E-3,3.1372897E-2,-1.4008047E-2],"split_indices":[12,0,10,4,9,0,9,0,0,0,0,0,0,0,0],"split_type":[0,0,0,0,0,0,0,0,0,0,0,0,0,0,0],"sum_hessian":[1.4552422E2,8.435702E1,6.1167194E1,5.4883442E1,2.9473577E1,2.8611712E1,3.2555485E1,1.5709996E1,3.9173447E1,9.455888E0,2.001769E1,5.7917647E0,2.2819946E1,3.0206343E1,2.3491406E0],"tree_param":{"num_deleted":"0","num_feature":"15","num_nodes":"15","size_leaf_vector":"1"}},{"base_weights":[1.3600437E-2,2.633774E-1,-2.3775486E-2,9.6412027E-1,-1.6724376E-2,-1.3954868E-2,6.4564146E-2,1.3652432E-2,-2.2616185E-2],"categories":[],"categories_nodes":[],"categories_segments":[],"categories_sizes":[],"default_left":[1,0,0,0,0,0,0,0,0],"id":48,"left_children":[1,3,-1,5,7,-1,-1,-1,-1],"loss_changes":[4.05428E0,4.3210387E0,0E0,2.9148426E0,2.2254298E0,0E0,0E0,0E0,0E0],"parents":[2147483647,0,0,1,1,3,3,4,4],"right_children":[2,4,-1,6,8,-1,-1,-1,-1],"split_conditions":[1E0,2.57E2,-2.3775486E-2,2.04E2,5.36E1,-1.3954868E-2,6.4564146E-2,1.3652432E-2,-2.2616185E-2],"split_indices":[12,3,0,9,0,0,0,0,0],"split_type":[0,0,0,0,0,0,0,0,0],"sum_hessian":[3.1160854E1,2.0932592E1,1.0228261E1,5.2803855E0,1.5652207E1,1.1306881E0,4.1496973E0,9.623529E0,6.0286784E0],"tree_param":{"num_deleted":"0","num_feature":"15","num_nodes":"9","size_leaf_vector":"1"}},{"base_weights":[3.030927E-3,1.9704297E-1,-2.103163E-1,-2.7593252E-1,3.2228234E-1,-3.210887E-1,1.6470104E-1,1.9893695E-2,-2.8015781E-2,2.8942946E-2,7.062799E-3,-1.9990798E-2,2.683146E-3,3.6840722E-2,-7.215312E-3],"categories":[],"categories_nodes":[],"categories_segments":[],"categories_sizes":[],"default_left":[1,0,1,0,0,1,1,0,0,0,0,0,0,0,0],"id":49,"left_children":[1,3,5,7,9,11,13,-1,-1,-1,-1,-1,-1,-1,-1],"loss_changes":[4.7079124E0,3.617043E0,2.3035014E0,2.7155514E0,2.126933E0,1.265388E0,2.4071777E0,0E0,0E0,0E0,0E0,0E0,0E0,0E0,0E0],"parents":[2147483647,0,0,1,1,2,2,3,3,4,4,5,5,6,6],"right_children":[2,4,6,8,10,12,14,-1,-1,-1,-1,-1,-1,-1,-1],"split_conditions":[5.1E1,1.9E2,3.35E2,1.39E2,1E0,4.6E2,9.1E1,1.9893695E-2,-2.8015781E-2,2.8942946E-2,7.062799E-3,-1.9990798E-2,2.683146E-3,3.6840722E-2,-7.215312E-3],"split_indices":[5,9,9,9,12,3,8,0,0,0,0,0,0,0,0],"split_type":[0,0,0,0,0,0,0,0,0,0,0,0,0,0,0],"sum_hessian":[1.1173866E2,5.8561176E1,5.3177483E1,1.200818E1,4.6552998E1,4.116268E1,1.2014804E1,3.4454904E0,8.56269E0,1.8348795E1,2.82042E1,3.3961266E1,7.201414E0,3.728042E0,8.286762E0],"tree_param":{"num_deleted":"0","num_feature":"15","num_nodes":"15","size_leaf_vector":"1"}},{"base_weights":[-1.7018737E-3,-1.1224061E-1,2.8399932E-1,1.4606818E-2,-3.7749946E-1,3.908503E-1,-2.756688E-2,6.8172067E-3,-3.4672424E-2,-2.210375E-2,2.6045516E-2,1.2454933E-2,3.800676E-2],"categories":[],"categories_nodes":[],"categories_segments":[],"categories_sizes":[],"default_left":[1,0,0,1,0,0,0,0,0,0,0,0,0],"id":50,"left_children":[1,3,5,7,9,11,-1,-1,-1,-1,-1,-1,-1],"loss_changes":[4.8516765E0,3.7322392E0,4.040907E0,6.6360493E0,2.3111625E0,1.8303638E0,0E0,0E0,0E0,0E0,0E0,0E0,0E0],"parents":[2147483647,0,0,1,1,2,2,3,3,4,4,5,5],"right_children":[2,4,6,8,10,12,-1,-1,-1,-1,-1,-1,-1],"split_conditions":[1.23E2,1.1E1,1E0,1.692E3,6.8E1,1.63E2,-2.756688E-2,6.8172067E-3,-3.4672424E-2,-2.210375E-2,2.6045516E-2,1.2454933E-2,3.800676E-2],"split_indices":[8,10,11,6,0,7,0,0,0,0,0,0,0],"split_type":[0,0,0,0,0,0,0,0,0,0,0,0,0],"sum_hessian":[1.5161684E2,1.0975818E2,4.1858658E1,7.489036E1,3.4867817E1,3.7583344E1,4.2753167E0,6.4592316E1,1.0298042E1,3.300354E1,1.8642781E0,2.8368505E1,9.214836E0],"tree_param":{"num_deleted":"0","num_feature":"15","num_nodes":"13","size_leaf_vector":"1"}},{"base_weights":[-3.5601703E-3,-2.1827221E-1,2.8905168E-1,-3.8980228E-1,1.0058029E-1,5.804145E-4,5.3495413E-1,2.6581107E-2,-2.1587258E-2,-5.5777477E-3,3.2725714E-2,-2.4681149E-2,7.019978E-3,3.02677E-2,-1.4046768E-2],"categories":[],"categories_nodes":[],"categories_segments":[],"categories_sizes":[],"default_left":[1,0,0,0,0,0,0,0,0,0,0,0,0,0,0],"id":51,"left_children":[1,3,5,7,9,11,13,-1,-1,-1,-1,-1,-1,-1,-1],"loss_changes":[9.228554E0,4.672327E0,4.409891E0,2.3661604E0,3.6483479E0,2.1153715E0,2.0977669E0,0E0,0E0,0E0,0E0,0E0,0E0,0E0,0E0],"parents":[2147483647,0,0,1,1,2,2,3,3,4,4,5,5,6,6],"right_children":[2,4,6,8,10,12,14,-1,-1,-1,-1,-1,-1,-1,-1],"split_conditions":[1E0,5.6E1,1.1E1,2.8E0,2.5E0,4.06E1,4.01E2,2.6581107E-2,-2.1587258E-2,-5.5777477E-3,3.2725714E-2,-2.4681149E-2,7.019978E-3,3.02677E-2,-1.4046768E-2],"split_indices":[12,0,10,4,2,0,9,0,0,0,0,0,0,0,0],"split_type":[0,0,0,0,0,0,0,0,0,0,0,0,0,0,0],"sum_hessian":[1.4488347E2,8.371173E1,6.117174E1,5.4285667E1,2.9426062E1,2.861062E1,3.256112E1,1.8551774E0,5.243049E1,2.1855042E1,7.57102E0,5.7513866E0,2.2859234E1,3.0212267E1,2.348855E0],"tree_param":{"num_deleted":"0","num_feature":"15","num_nodes":"15","size_leaf_vector":"1"}},{"base_weights":[1.3540839E-2,2.5394374E-1,-2.3690982E-2,-3.3583978E-1,5.4713607E-1,-2.2526465E-2,1.0866607E-2,-1.0891879E-2,4.1439313E-2],"categories":[],"categories_nodes":[],"categories_segments":[],"categories_sizes":[],"default_left":[1,0,0,0,0,0,0,0,0],"id":52,"left_children":[1,3,-1,5,7,-1,-1,-1,-1],"loss_changes":[3.883158E0,4.015368E0,0E0,6.040203E-1,3.451363E0,0E0,0E0,0E0,0E0],"parents":[2147483647,0,0,1,1,3,3,4,4],"right_children":[2,4,-1,6,8,-1,-1,-1,-1],"split_conditions":[1E0,3.44E0,-2.3690982E-2,1.22E1,2.28E2,-2.2526465E-2,1.0866607E-2,-1.0891879E-2,4.1439313E-2],"split_indices":[12,4,0,10,9,0,0,0,0],"split_type":[0,0,0,0,0,0,0,0,0],"sum_hessian":[3.1116268E1,2.1158327E1,9.957941E0,6.9773273E0,1.4181001E1,5.9328237E0,1.0445037E0,3.877128E0,1.0303872E1],"tree_param":{"num_deleted":"0","num_feature":"15","num_nodes":"9","size_leaf_vector":"1"}},{"base_weights":[3.2922262E-3,-6.1635513E-2,6.161191E-1,8.9655064E-2,-2.940524E-1,8.369433E-1,-1.9597564E-2,4.1088786E-2,7.4618286E-4,-2.8552447E-2,-7.209871E-3,5.9135087E-2,2.085388E-2],"categories":[],"categories_nodes":[],"categories_segments":[],"categories_sizes":[],"default_left":[0,0,1,0,0,0,0,0,0,0,0,0,0],"id":53,"left_children":[1,3,5,7,9,11,-1,-1,-1,-1,-1,-1,-1],"loss_changes":[4.5137644E0,3.6347308E0,2.7471018E0,3.4304912E0,1.6068876E0,8.47126E-1,0E0,0E0,0E0,0E0,0E0,0E0,0E0],"parents":[2147483647,0,0,1,1,2,2,3,3,4,4,5,5],"right_children":[2,4,6,8,10,12,-1,-1,-1,-1,-1,-1,-1],"split_conditions":[4.32E2,1.08E1,2.96E2,6.045E1,2.9E2,1.02E1,-1.9597564E-2,4.1088786E-2,7.4618286E-4,-2.8552447E-2,-7.209871E-3,5.9135087E-2,2.085388E-2],"split_indices":[9,10,3,7,3,10,0,0,0,0,0,0,0],"split_type":[0,0,0,0,0,0,0,0,0,0,0,0,0],"sum_hessian":[1.1148681E2,1.0161983E2,9.866986E0,6.192458E1,3.9695244E1,8.233207E0,1.6337796E0,4.809639E0,5.711494E1,1.2949082E1,2.674616E1,3.518705E0,4.714502E0],"tree_param":{"num_deleted":"0","num_feature":"15","num_nodes":"13","size_leaf_vector":"1"}},{"base_weights":[-1.5621284E-3,-1.09949745E-1,2.7769566E-1,1.2620857E-2,-3.6885172E-1,3.8058752E-1,-2.7139062E-2,6.555485E-3,-3.4235362E-2,-3.2151204E-2,-6.132265E-3,-1.7339373E-2,2.1975864E-2],"categories":[],"categories_nodes":[],"categories_segments":[],"categories_sizes":[],"default_left":[1,0,0,1,1,0,0,0,0,0,0,0,0],"id":54,"left_children":[1,3,5,7,9,11,-1,-1,-1,-1,-1,-1,-1],"loss_changes":[4.6368837E0,3.5064688E0,3.8227534E0,6.357773E0,2.31678E0,1.809114E0,0E0,0E0,0E0,0E0,0E0,0E0,0E0],"parents":[2147483647,0,0,1,1,2,2,3,3,4,4,5,5],"right_children":[2,4,6,8,10,12,-1,-1,-1,-1,-1,-1,-1],"split_conditions":[1.23E2,1.1E1,1E0,1.692E3,8.58E2,3.37E1,-2.7139062E-2,6.555485E-3,-3.4235362E-2,-3.2151204E-2,-6.132265E-3,-1.7339373E-2,2.1975864E-2],"split_indices":[8,10,11,6,6,0,0,0,0,0,0,0,0],"split_type":[0,0,0,0,0,0,0,0,0,0,0,0,0],"sum_hessian":[1.5118509E2,1.0934973E2,4.1835358E1,7.4860275E1,3.4489456E1,3.7649998E1,4.185357E0,6.4681656E1,1.0178618E1,1.5555416E1,1.893404E1,2.455597E0,3.51944E1],"tree_param":{"num_deleted":"0","num_feature":"15","num_nodes":"13","size_leaf_vector":"1"}},{"base_weights":[-3.9080014E-3,-2.1290775E-1,2.7912852E-1,1.3158242E-1,-3.6633036E-1,4.2697752E-1,-1.6218987E-1,-4.786165E-3,2.8199548E-2,-2.3487039E-2,4.51874E-3,3.0698132E-4,3.0247057E-2,3.5629373E-2,-1.4797454E-2],"categories":[],"categories_nodes":[],"categories_segments":[],"categories_sizes":[],"default_left":[1,0,1,1,0,0,0,0,0,0,0,0,0,0,0],"id":55,"left_children":[1,3,5,7,9,11,13,-1,-1,-1,-1,-1,-1,-1,-1],"loss_changes":[8.649265E0,4.492957E0,4.12202E0,2.6732624E0,2.8028622E0,3.5014048E0,2.1195087E0,0E0,0E0,0E0,0E0,0E0,0E0,0E0,0E0],"parents":[2147483647,0,0,1,1,2,2,3,3,4,4,5,5,6,6],"right_children":[2,4,6,8,10,12,14,-1,-1,-1,-1,-1,-1,-1,-1],"split_conditions":[1E0,3.35E0,4.04E2,2.86E2,2.6E0,5.3E1,9.1E1,-4.786165E-3,2.8199548E-2,-2.3487039E-2,4.51874E-3,3.0698132E-4,3.0247057E-2,3.5629373E-2,-1.4797454E-2],"split_indices":[12,4,3,9,2,5,8,0,0,0,0,0,0,0,0],"split_type":[0,0,0,0,0,0,0,0,0,0,0,0,0,0,0],"sum_hessian":[1.4421004E2,8.30972E1,6.1112835E1,2.5648727E1,5.744847E1,4.5801178E1,1.5311659E1,1.7321764E1,8.326965E0,4.6818867E1,1.0629604E1,1.3919548E1,3.1881628E1,1.4568107E0,1.3854848E1],"tree_param":{"num_deleted":"0","num_feature":"15","num_nodes":"15","size_leaf_vector":"1"}},{"base_weights":[1.2927731E-2,2.4347214E-1,-2.3601912E-2,1.0564462E0,3.0298403E-2,1.2751314E-2,8.0983706E-2,-2.2687273E-2,1.626362E-2],"categories":[],"categories_nodes":[],"categories_segments":[],"categories_sizes":[],"default_left":[1,0,0,0,1,0,0,0,0],"id":56,"left_children":[1,3,-1,5,7,-1,-1,-1,-1],"loss_changes":[3.704688E0,3.8537471E0,0E0,1.6760993E0,2.8308856E0,0E0,0E0,0E0,0E0],"parents":[2147483647,0,0,1,1,3,3,4,4],"right_children":[2,4,-1,6,8,-1,-1,-1,-1],"split_conditions":[1E0,6.708E1,-2.3601912E-2,5.676E1,2.33E2,1.2751314E-2,8.0983706E-2,-2.2687273E-2,1.626362E-2],"split_indices":[12,7,0,7,9,0,0,0,0],"split_type":[0,0,0,0,0,0,0,0,0],"sum_hessian":[3.1106985E1,2.1421524E1,9.68546E0,3.6283605E0,1.7793163E1,2.0971332E0,1.5312272E0,6.5335464E0,1.1259617E1],"tree_param":{"num_deleted":"0","num_feature":"15","num_nodes":"9","size_leaf_vector":"1"}},{"base_weights":[3.768198E-3,4.1849336E-1,-8.763004E-2,5.2130514E-1,-2.1083852E-2,7.383004E-1,-1.303653E-1,-1.7820127E-2,2.992238E-2,5.365352E-2,1.9277222E-4,1.5285314E-3,-1.86225E-2],"categories":[],"categories_nodes":[],"categories_segments":[],"categories_sizes":[],"default_left":[0,1,0,0,0,1,1,0,0,0,0,0,0],"id":57,"left_children":[1,3,5,7,-1,9,11,-1,-1,-1,-1,-1,-1],"loss_changes":[4.2910643E0,1.9855559E0,3.3716173E0,1.4767327E0,0E0,1.1552193E0,3.4819891E0,0E0,0E0,0E0,0E0,0E0,0E0],"parents":[2147483647,0,0,1,1,2,2,3,3,5,5,6,6],"right_children":[2,4,6,8,-1,10,12,-1,-1,-1,-1,-1,-1],"split_conditions":[7E-1,2.96E2,9.6E0,1.4E1,-2.1083852E-2,1.284E3,1E0,-1.7820127E-2,2.992238E-2,5.365352E-2,1.9277222E-4,1.5285314E-3,-1.86225E-2],"split_indices":[2,3,10,5,0,6,12,0,0,0,0,0,0],"split_type":[0,0,0,0,0,0,0,0,0,0,0,0,0],"sum_hessian":[1.1123782E2,1.9441595E1,9.179623E1,1.7660055E1,1.7815393E0,3.7153196E0,8.808091E1,1.1342927E0,1.6525763E1,2.2353528E0,1.4799671E0,5.343288E1,3.4648026E1],"tree_param":{"num_deleted":"0","num_feature":"15","num_nodes":"13","size_leaf_vector":"1"}},{"base_weights":[-1.6934494E-3,-1.076937E-1,2.7026153E-1,1.188107E-2,-3.623824E-1,3.7004638E-1,-2.6855042E-2,6.361651E-3,-3.3781193E-2,-3.1848233E-2,-5.9278468E-3,-1.715254E-2,2.1385176E-2],"categories":[],"categories_nodes":[],"categories_segments":[],"categories_sizes":[],"default_left":[1,0,0,1,1,0,0,0,0,0,0,0,0],"id":58,"left_children":[1,3,5,7,9,11,-1,-1,-1,-1,-1,-1,-1],"loss_changes":[4.404962E0,3.3524106E0,3.6514301E0,6.0958652E0,2.2782092E0,1.7393169E0,0E0,0E0,0E0,0E0,0E0,0E0,0E0],"parents":[2147483647,0,0,1,1,2,2,3,3,4,4,5,5],"right_children":[2,4,6,8,10,12,-1,-1,-1,-1,-1,-1,-1],"split_conditions":[1.23E2,1.1E1,1E0,1.692E3,8.58E2,3.37E1,-2.6855042E-2,6.361651E-3,-3.3781193E-2,-3.1848233E-2,-5.9278468E-3,-1.715254E-2,2.1385176E-2],"split_indices":[8,10,11,6,6,0,0,0,0,0,0,0,0],"split_type":[0,0,0,0,0,0,0,0,0,0,0,0,0],"sum_hessian":[1.5079562E2,1.08938515E2,4.185711E1,7.478212E1,3.415639E1,3.7734966E1,4.1221423E0,6.4735504E1,1.0046612E1,1.5306598E1,1.8849794E1,2.4525266E0,3.528244E1],"tree_param":{"num_deleted":"0","num_feature":"15","num_nodes":"13","size_leaf_vector":"1"}},{"base_weights":[-4.018357E-3,2.901989E-1,-1.9564927E-1,-4.2428726E-1,4.0479672E-1,-4.416338E-1,-7.9957134E-4,-3.1770717E-2,1.8876549E-2,3.645959E-2,1.0631564E-2,-2.5617111E-2,-4.2170318E-4,-9.167454E-3,1.2114058E-2],"categories":[],"categories_nodes":[],"categories_segments":[],"categories_sizes":[],"default_left":[0,0,0,1,0,0,1,0,0,0,0,0,0,0,0],"id":59,"left_children":[1,3,5,7,9,11,13,-1,-1,-1,-1,-1,-1,-1,-1],"loss_changes":[8.207977E0,4.873714E0,4.2245407E0,1.6662554E0,2.9618425E0,1.1890416E0,2.2714663E0,0E0,0E0,0E0,0E0,0E0,0E0,0E0,0E0],"parents":[2147483647,0,0,1,1,2,2,3,3,4,4,5,5,6,6],"right_children":[2,4,6,8,10,12,14,-1,-1,-1,-1,-1,-1,-1,-1],"split_conditions":[3.37E0,9.9E0,1E0,1.995E3,3.5E2,3.1E0,5.7E1,-3.1770717E-2,1.8876549E-2,3.645959E-2,1.0631564E-2,-2.5617111E-2,-4.2170318E-4,-9.167454E-3,1.2114058E-2],"split_indices":[4,10,12,6,3,2,5,0,0,0,0,0,0,0,0],"split_type":[0,0,0,0,0,0,0,0,0,0,0,0,0,0,0],"sum_hessian":[1.4357324E2,5.642607E1,8.714717E1,7.4258046E0,4.9000267E1,3.795943E1,4.918774E1,6.04233E0,1.3834751E0,1.7188948E1,3.181132E1,3.2475903E1,5.483527E0,2.8231836E1,2.0955904E1],"tree_param":{"num_deleted":"0","num_feature":"15","num_nodes":"15","size_leaf_vector":"1"}},{"base_weights":[1.3728271E-2,2.372047E-1,-2.3521593E-2,8.638589E-1,-2.4834245E-2,-1.3713828E-2,5.6782395E-2,1.2380455E-2,-2.256556E-2],"categories":[],"categories_nodes":[],"categories_segments":[],"categories_sizes":[],"default_left":[1,0,0,0,0,0,0,0,0],"id":60,"left_children":[1,3,-1,5,7,-1,-1,-1,-1],"loss_changes":[3.575345E0,3.7272756E0,0E0,2.37853E0,2.0737002E0,0E0,0E0,0E0,0E0],"parents":[2147483647,0,0,1,1,3,3,4,4],"right_children":[2,4,-1,6,8,-1,-1,-1,-1],"split_conditions":[1E0,2.57E2,-2.3521593E-2,2.04E2,5.36E1,-1.3713828E-2,5.6782395E-2,1.2380455E-2,-2.256556E-2],"split_indices":[12,3,0,9,0,0,0,0,0],"split_type":[0,0,0,0,0,0,0,0,0],"sum_hessian":[3.1013018E1,2.1567883E1,9.445136E0,5.6822824E0,1.58856E1,1.093601E0,4.5886817E0,9.949218E0,5.9363823E0],"tree_param":{"num_deleted":"0","num_feature":"15","num_nodes":"9","size_leaf_vector":"1"}},{"base_weights":[4.0232097E-3,-5.9147406E-2,5.9228325E-1,8.728349E-2,-2.877358E-1,7.992509E-1,-1.9228071E-2,3.9151203E-2,7.3484244E-4,-2.8338486E-2,-6.959329E-3,5.6699038E-2,1.967932E-2],"categories":[],"categories_nodes":[],"categories_segments":[],"categories_sizes":[],"default_left":[0,0,1,0,0,0,0,0,0,0,0,0,0],"id":61,"left_children":[1,3,5,7,9,11,-1,-1,-1,-1,-1,-1,-1],"loss_changes":[4.197377E0,3.4411943E0,2.5216982E0,3.168802E0,1.5825236E0,8.250046E-1,0E0,0E0,0E0,0E0,0E0,0E0,0E0],"parents":[2147483647,0,0,1,1,2,2,3,3,4,4,5,5],"right_children":[2,4,6,8,10,12,-1,-1,-1,-1,-1,-1,-1],"split_conditions":[4.32E2,1.08E1,2.96E2,6.045E1,2.9E2,1.02E1,-1.9228071E-2,3.9151203E-2,7.3484244E-4,-2.8338486E-2,-6.959329E-3,5.6699038E-2,1.967932E-2],"split_indices":[9,10,3,7,3,10,0,0,0,0,0,0,0],"split_type":[0,0,0,0,0,0,0,0,0,0,0,0,0],"sum_hessian":[1.1100918E2,1.0105662E2,9.952564E0,6.197461E1,3.908201E1,8.362561E0,1.5900029E0,4.9303102E0,5.7044296E1,1.2599609E1,2.6482397E1,3.5981882E0,4.7643733E0],"tree_param":{"num_deleted":"0","num_feature":"15","num_nodes":"13","size_leaf_vector":"1"}},{"base_weights":[-1.7489118E-3,-1.0514083E-1,2.62527E-1,1.1384238E-2,-3.5549003E-1,3.5858113E-1,-2.6485715E-2,6.1949543E-3,-3.3373397E-2,-3.1535756E-2,-5.7064467E-3,1.1086915E-2,3.5829224E-2],"categories":[],"categories_nodes":[],"categories_segments":[],"categories_sizes":[],"default_left":[1,0,0,1,1,0,0,0,0,0,0,0,0],"id":62,"left_children":[1,3,5,7,9,11,-1,-1,-1,-1,-1,-1,-1],"loss_changes":[4.164065E0,3.199209E0,3.4512928E0,5.865464E0,2.2409978E0,1.7428665E0,0E0,0E0,0E0,0E0,0E0,0E0,0E0],"parents":[2147483647,0,0,1,1,2,2,3,3,4,4,5,5],"right_children":[2,4,6,8,10,12,-1,-1,-1,-1,-1,-1,-1],"split_conditions":[1.23E2,1.1E1,1E0,1.692E3,8.58E2,1.63E2,-2.6485715E-2,6.1949543E-3,-3.3373397E-2,-3.1535756E-2,-5.7064467E-3,1.1086915E-2,3.5829224E-2],"split_indices":[8,10,11,6,6,7,0,0,0,0,0,0,0],"split_type":[0,0,0,0,0,0,0,0,0,0,0,0,0],"sum_hessian":[1.5038573E2,1.08528564E2,4.185717E1,7.4709526E1,3.3819035E1,3.7819218E1,4.037952E0,6.478875E1,9.92078E0,1.5047336E1,1.8771696E1,2.8532398E1,9.286819E0],"tree_param":{"num_deleted":"0","num_feature":"15","num_nodes":"13","size_leaf_vector":"1"}},{"base_weights":[-4.3448275E-3,2.8043386E-1,-1.9116236E-1,-4.1789475E-1,3.9137283E-1,-4.3379366E-1,-1.0407713E-3,-3.136053E-2,1.820985E-2,3.5332557E-2,1.0241398E-2,-2.5214408E-2,-4.0714839E-4,-8.932645E-3,1.1700931E-2],"categories":[],"categories_nodes":[],"categories_segments":[],"categories_sizes":[],"default_left":[0,0,0,1,0,0,1,0,0,0,0,0,0,0,0],"id":63,"left_children":[1,3,5,7,9,11,13,-1,-1,-1,-1,-1,-1,-1,-1],"loss_changes":[7.711011E0,4.6121616E0,4.036309E0,1.596239E0,2.7998686E0,1.1494184E0,2.132044E0,0E0,0E0,0E0,0E0,0E0,0E0,0E0,0E0],"parents":[2147483647,0,0,1,1,2,2,3,3,4,4,5,5,6,6],"right_children":[2,4,6,8,10,12,14,-1,-1,-1,-1,-1,-1,-1,-1],"split_conditions":[3.37E0,9.9E0,1E0,1.995E3,3.5E2,3.1E0,5.7E1,-3.136053E-2,1.820985E-2,3.5332557E-2,1.0241398E-2,-2.5214408E-2,-4.0714839E-4,-8.932645E-3,1.1700931E-2],"split_indices":[4,10,12,6,3,2,5,0,0,0,0,0,0,0,0],"split_type":[0,0,0,0,0,0,0,0,0,0,0,0,0,0,0],"sum_hessian":[1.4293166E2,5.642226E1,8.65094E1,7.355383E0,4.906688E1,3.7443153E1,4.9066246E1,5.958665E0,1.3967179E0,1.720341E1,3.186347E1,3.1964571E1,5.4785814E0,2.8085022E1,2.0981226E1],"tree_param":{"num_deleted":"0","num_feature":"15","num_nodes":"15","size_leaf_vector":"1"}},{"base_weights":[1.3247718E-2,2.2832225E-1,-2.3434553E-2,-3.3218125E-1,4.8944807E-1,-2.2426123E-2,1.0756887E-2,-1.0818023E-2,3.653235E-2],"categories":[],"categories_nodes":[],"categories_segments":[],"categories_sizes":[],"default_left":[1,0,0,0,0,0,0,0,0],"id":64,"left_children":[1,3,-1,5,7,-1,-1,-1,-1],"loss_changes":[3.4213033E0,3.496855E0,0E0,5.9544694E-1,2.87259E0,0E0,0E0,0E0,0E0],"parents":[2147483647,0,0,1,1,3,3,4,4],"right_children":[2,4,-1,6,8,-1,-1,-1,-1],"split_conditions":[1E0,3.44E0,-2.3434553E-2,1.22E1,2.28E2,-2.2426123E-2,1.0756887E-2,-1.0818023E-2,3.653235E-2],"split_indices":[12,4,0,10,9,0,0,0,0],"split_type":[0,0,0,0,0,0,0,0,0],"sum_hessian":[3.097494E1,2.178099E1,9.193948E0,6.835837E0,1.4945154E1,5.786364E0,1.0494725E0,3.8326976E0,1.1112457E1],"tree_param":{"num_deleted":"0","num_feature":"15","num_nodes":"9","size_leaf_vector":"1"}},{"base_weights":[4.447002E-3,-5.7388335E-2,5.746744E-1,8.548958E-2,-2.829626E-1,7.7344936E-1,-1.9046606E-2,-6.2494394E-3,1.5805898E-2,-1.0760209E-3,-2.1674355E-2,5.493624E-2,1.8947294E-2],"categories":[],"categories_nodes":[],"categories_segments":[],"categories_sizes":[],"default_left":[0,0,1,0,0,0,0,0,0,0,0,0,0],"id":65,"left_children":[1,3,5,7,9,11,-1,-1,-1,-1,-1,-1,-1],"loss_changes":[3.9729977E0,3.3025403E0,2.388372E0,3.0997288E0,1.5520723E0,7.9687214E-1,0E0,0E0,0E0,0E0,0E0,0E0,0E0],"parents":[2147483647,0,0,1,1,2,2,3,3,4,4,5,5],"right_children":[2,4,6,8,10,12,-1,-1,-1,-1,-1,-1,-1],"split_conditions":[4.32E2,1.08E1,2.96E2,5.21E1,4.65E1,1.02E1,-1.9046606E-2,-6.2494394E-3,1.5805898E-2,-1.0760209E-3,-2.1674355E-2,5.493624E-2,1.8947294E-2],"split_indices":[9,10,3,0,0,10,0,0,0,0,0,0,0],"split_type":[0,0,0,0,0,0,0,0,0,0,0,0,0],"sum_hessian":[1.1074121E2,1.0071866E2,1.0022551E1,6.2042305E1,3.8676353E1,8.454547E0,1.5680034E0,3.2677708E1,2.93646E1,1.4549194E1,2.4127161E1,3.655465E0,4.799082E0],"tree_param":{"num_deleted":"0","num_feature":"15","num_nodes":"13","size_leaf_vector":"1"}},{"base_weights":[-1.6241311E-3,-1.0295313E-1,2.5662997E-1,1.0834253E-2,-3.4938672E-1,3.4938663E-1,-2.613308E-2,6.0225143E-3,-3.2958854E-2,-3.1249551E-2,-5.5328547E-3,1.0789885E-2,3.492626E-2],"categories":[],"categories_nodes":[],"categories_segments":[],"categories_sizes":[],"default_left":[1,0,0,1,1,0,0,0,0,0,0,0,0],"id":66,"left_children":[1,3,5,7,9,11,-1,-1,-1,-1,-1,-1,-1],"loss_changes":[3.9761696E0,3.063496E0,3.277762E0,5.633067E0,2.200614E0,1.661911E0,0E0,0E0,0E0,0E0,0E0,0E0,0E0],"parents":[2147483647,0,0,1,1,2,2,3,3,4,4,5,5],"right_children":[2,4,6,8,10,12,-1,-1,-1,-1,-1,-1,-1],"split_conditions":[1.23E2,1.1E1,1E0,1.692E3,8.58E2,1.63E2,-2.613308E-2,6.0225143E-3,-3.2958854E-2,-3.1249551E-2,-5.5328547E-3,1.0789885E-2,3.492626E-2],"split_indices":[8,10,11,6,6,7,0,0,0,0,0,0,0],"split_type":[0,0,0,0,0,0,0,0,0,0,0,0,0],"sum_hessian":[1.4993448E2,1.0811547E2,4.1819016E1,7.461777E1,3.3497707E1,3.7863857E1,3.9551575E0,6.483137E1,9.786395E0,1.479707E1,1.8700638E1,2.85558E1,9.308059E0],"tree_param":{"num_deleted":"0","num_feature":"15","num_nodes":"13","size_leaf_vector":"1"}},{"base_weights":[-4.714276E-3,-2.0017032E-1,2.5554487E-1,-3.7132296E-1,1.1319036E-1,3.971446E-1,-1.6560638E-1,2.5493413E-2,-2.0656874E-2,-9.7391E-3,2.262228E-2,5.497633E-5,2.8175537E-2,-2.468322E-2,9.527515E-3],"categories":[],"categories_nodes":[],"categories_segments":[],"categories_sizes":[],"default_left":[1,0,1,0,0,0,0,0,0,0,0,0,0,0,0],"id":67,"left_children":[1,3,5,7,9,11,13,-1,-1,-1,-1,-1,-1,-1,-1],"loss_changes":[7.3387203E0,4.4601197E0,3.7562017E0,2.1823535E0,3.2085438E0,3.0702329E0,1.9958671E0,0E0,0E0,0E0,0E0,0E0,0E0,0E0,0E0],"parents":[2147483647,0,0,1,1,2,2,3,3,4,4,5,5,6,6],"right_children":[2,4,6,8,10,12,14,-1,-1,-1,-1,-1,-1,-1,-1],"split_conditions":[1E0,5.6E1,4.04E2,2.8E0,1E0,5.3E1,1E0,2.5493413E-2,-2.0656874E-2,-9.7391E-3,2.262228E-2,5.497633E-5,2.8175537E-2,-2.468322E-2,9.527515E-3],"split_indices":[12,0,3,4,11,5,13,0,0,0,0,0,0,0,0],"split_type":[0,0,0,0,0,0,0,0,0,0,0,0,0,0,0],"sum_hessian":[1.4226085E2,8.137709E1,6.0883755E1,5.2511284E1,2.8865803E1,4.5606808E1,1.5276945E1,1.8717978E0,5.063949E1,1.5353715E1,1.3512088E1,1.3788654E1,3.1818155E1,7.7511907E0,7.5257545E0],"tree_param":{"num_deleted":"0","num_feature":"15","num_nodes":"15","size_leaf_vector":"1"}},{"base_weights":[1.2445046E-2,6.071995E-1,-1.5606111E-1,8.5058904E-1,-1.4759037E-2,-2.348923E-2,5.2132085E-2,1.4445576E-2,6.878449E-2,1.4878675E-2,-2.1717511E-2],"categories":[],"categories_nodes":[],"categories_segments":[],"categories_sizes":[],"default_left":[0,0,1,0,0,0,1,0,0,0,0],"id":68,"left_children":[1,3,5,7,-1,-1,9,-1,-1,-1,-1],"loss_changes":[3.2983983E0,1.8459585E0,1.7033794E0,1.3653121E0,0E0,0E0,2.0816114E0,0E0,0E0,0E0,0E0],"parents":[2147483647,0,0,1,1,2,2,3,3,6,6],"right_children":[2,4,6,8,-1,-1,10,-1,-1,-1,-1],"split_conditions":[7.224E1,9E-1,2.33E2,1.1E1,-1.4759037E-2,-2.348923E-2,1.11E2,1.4445576E-2,6.878449E-2,1.4878675E-2,-2.1717511E-2],"split_indices":[7,2,9,10,0,0,8,0,0,0,0],"split_type":[0,0,0,0,0,0,0,0,0,0,0],"sum_hessian":[3.0966124E1,6.2616744E0,2.470445E1,4.9767437E0,1.2849307E0,9.353422E0,1.53510275E1,3.153637E0,1.8231066E0,1.0461352E1,4.889675E0],"tree_param":{"num_deleted":"0","num_feature":"15","num_nodes":"11","size_leaf_vector":"1"}},{"base_weights":[4.748925E-3,1.7580685E-1,-1.9254392E-1,-2.7368778E-1,2.9199162E-1,-3.026058E-1,1.6732061E-1,1.9152772E-2,-2.7888725E-2,1.8812852E-2,-6.72947E-3,-1.9258745E-2,3.8620462E-3,3.5175335E-2,-6.7293975E-3],"categories":[],"categories_nodes":[],"categories_segments":[],"categories_sizes":[],"default_left":[1,0,1,0,0,0,1,0,0,0,0,0,0,0,0],"id":69,"left_children":[1,3,5,7,9,11,13,-1,-1,-1,-1,-1,-1,-1,-1],"loss_changes":[3.7962153E0,3.2255986E0,2.120056E0,2.6181276E0,1.7884994E0,1.2958157E0,2.1798651E0,0E0,0E0,0E0,0E0,0E0,0E0,0E0,0E0],"parents":[2147483647,0,0,1,1,2,2,3,3,4,4,5,5,6,6],"right_children":[2,4,6,8,10,12,14,-1,-1,-1,-1,-1,-1,-1,-1],"split_conditions":[5.1E1,1.9E2,3.35E2,1.39E2,6.24E1,1.86E2,9.1E1,1.9152772E-2,-2.7888725E-2,1.8812852E-2,-6.72947E-3,-1.9258745E-2,3.8620462E-3,3.5175335E-2,-6.7293975E-3],"split_indices":[5,9,9,9,0,7,8,0,0,0,0,0,0,0,0],"split_type":[0,0,0,0,0,0,0,0,0,0,0,0,0,0,0],"sum_hessian":[1.1048241E2,5.9233963E1,5.1248447E1,1.1887619E1,4.7346344E1,3.9367348E1,1.18811E1,3.484313E0,8.403306E0,3.9634956E1,7.711388E0,3.2326385E1,7.0409646E0,3.8007727E0,8.080327E0],"tree_param":{"num_deleted":"0","num_feature":"15","num_nodes":"15","size_leaf_vector":"1"}},{"base_weights":[-1.483258E-3,-1.005839E-1,2.502872E-1,1.0732323E-2,-3.435507E-1,3.4015828E-1,-2.5838343E-2,5.8970996E-3,-3.2607187E-2,-2.2318704E-2,1.2363478E-2,-1.7765028E-2,1.9842245E-2],"categories":[],"categories_nodes":[],"categories_segments":[],"categories_sizes":[],"default_left":[1,0,0,1,0,0,0,0,0,0,0,0,0],"id":70,"left_children":[1,3,5,7,9,11,-1,-1,-1,-1,-1,-1,-1],"loss_changes":[3.7791717E0,2.9429283E0,3.125004E0,5.442375E0,2.1865811E0,1.6744928E0,0E0,0E0,0E0,0E0,0E0,0E0,0E0],"parents":[2147483647,0,0,1,1,2,2,3,3,4,4,5,5],"right_children":[2,4,6,8,10,12,-1,-1,-1,-1,-1,-1,-1],"split_conditions":[1.23E2,1.1E1,1E0,1.692E3,6.46E1,3.37E1,-2.5838343E-2,5.8970996E-3,-3.2607187E-2,-2.2318704E-2,1.2363478E-2,-1.7765028E-2,1.9842245E-2],"split_indices":[8,10,11,6,0,0,0,0,0,0,0,0,0],"split_type":[0,0,0,0,0,0,0,0,0,0,0,0,0],"sum_hessian":[1.4945709E2,1.0767506E2,4.1782032E1,7.449891E1,3.317615E1,3.7898262E1,3.8837717E0,6.483496E1,9.663949E0,2.846647E1,4.7096786E0,2.4592443E0,3.543902E1],"tree_param":{"num_deleted":"0","num_feature":"15","num_nodes":"13","size_leaf_vector":"1"}},{"base_weights":[-4.938887E-3,2.669535E-1,-1.8500048E-1,-4.0834388E-1,3.7296802E-1,-4.2065594E-1,-3.6732007E-3,-3.0864239E-2,1.7925173E-2,3.372264E-2,9.756624E-3,-2.4583152E-2,6.896916E-6,-1.1323455E-2,8.289658E-3],"categories":[],"categories_nodes":[],"categories_segments":[],"categories_sizes":[],"default_left":[0,0,0,1,0,0,0,0,0,0,0,0,0,0,0],"id":71,"left_children":[1,3,5,7,9,11,13,-1,-1,-1,-1,-1,-1,-1,-1],"loss_changes":[7.0286193E0,4.247692E0,3.6883485E0,1.5414639E0,2.5472918E0,1.1217952E0,1.9182029E0,0E0,0E0,0E0,0E0,0E0,0E0,0E0,0E0],"parents":[2147483647,0,0,1,1,2,2,3,3,4,4,5,5,6,6],"right_children":[2,4,6,8,10,12,14,-1,-1,-1,-1,-1,-1,-1,-1],"split_conditions":[3.37E0,9.9E0,1E0,1.995E3,3.5E2,3.1E0,1.2E0,-3.0864239E-2,1.7925173E-2,3.372264E-2,9.756624E-3,-2.4583152E-2,6.896916E-6,-1.1323455E-2,8.289658E-3],"split_indices":[4,10,12,6,3,2,2,0,0,0,0,0,0,0,0],"split_type":[0,0,0,0,0,0,0,0,0,0,0,0,0,0,0],"sum_hessian":[1.4155731E2,5.620516E1,8.535216E1,7.2394056E0,4.8965755E1,3.6541912E1,4.8810246E1,5.84254E0,1.396866E0,1.7130995E1,3.1834759E1,3.1121826E1,5.4200873E0,2.094184E1,2.7868408E1],"tree_param":{"num_deleted":"0","num_feature":"15","num_nodes":"15","size_leaf_vector":"1"}},{"base_weights":[1.2792361E-2,2.1627331E-1,-2.3305973E-2,-3.2799459E-1,4.5839483E-1,-2.2309178E-2,1.0649696E-2,3.6245786E-2,-5.653958E-3],"categories":[],"categories_nodes":[],"categories_segments":[],"categories_sizes":[],"default_left":[1,0,0,0,1,0,0,0,0],"id":72,"left_children":[1,3,-1,5,7,-1,-1,-1,-1],"loss_changes":[3.2078893E0,3.1891313E0,0E0,5.862612E-1,2.576337E0,0E0,0E0,0E0,0E0],"parents":[2147483647,0,0,1,1,3,3,4,4],"right_children":[2,4,-1,6,8,-1,-1,-1,-1],"split_conditions":[1E0,3.44E0,-2.3305973E-2,1.22E1,2.58E2,-2.2309178E-2,1.0649696E-2,3.6245786E-2,-5.653958E-3],"split_indices":[12,4,0,10,3,0,0,0,0],"split_type":[0,0,0,0,0,0,0,0,0],"sum_hessian":[3.0884026E1,2.2059675E1,8.824349E0,6.6827564E0,1.537692E1,5.628377E0,1.0543797E0,1.03032465E1,5.0736723E0],"tree_param":{"num_deleted":"0","num_feature":"15","num_nodes":"9","size_leaf_vector":"1"}},{"base_weights":[4.9791415E-3,3.8515428E-1,-8.150364E-2,4.8194548E-1,-2.0997673E-2,6.9250375E-1,-1.2322982E-1,-1.7734414E-2,2.7723724E-2,5.09588E-2,-5.9488864E-4,1.2947174E-3,-1.7861066E-2],"categories":[],"categories_nodes":[],"categories_segments":[],"categories_sizes":[],"default_left":[0,1,0,0,0,1,1,0,0,0,0,0,0],"id":73,"left_children":[1,3,5,7,-1,9,11,-1,-1,-1,-1,-1,-1],"loss_changes":[3.688018E0,1.8221619E0,3.0382066E0,1.3508368E0,0E0,1.1230636E0,3.0660326E0,0E0,0E0,0E0,0E0,0E0,0E0],"parents":[2147483647,0,0,1,1,2,2,3,3,5,5,6,6],"right_children":[2,4,6,8,-1,10,12,-1,-1,-1,-1,-1,-1],"split_conditions":[7E-1,2.96E2,9.6E0,1.4E1,-2.0997673E-2,1.284E3,1E0,-1.7734414E-2,2.7723724E-2,5.09588E-2,-5.9488864E-4,1.2947174E-3,-1.7861066E-2],"split_indices":[2,3,10,5,0,6,12,0,0,0,0,0,0],"split_type":[0,0,0,0,0,0,0,0,0,0,0,0,0],"sum_hessian":[1.10215996E2,1.9785614E1,9.0430374E1,1.802055E1,1.7650658E0,3.827888E0,8.660249E1,1.1272492E0,1.68933E1,2.3098207E0,1.5180675E0,5.343646E1,3.316603E1],"tree_param":{"num_deleted":"0","num_feature":"15","num_nodes":"13","size_leaf_vector":"1"}},{"base_weights":[-1.5484572E-3,-9.7944714E-2,2.425331E-1,1.00455405E-2,-3.3581787E-1,3.2907918E-1,-2.5503924E-2,5.724217E-3,-3.223064E-2,-3.0772543E-2,-4.898204E-3,-1.7589137E-2,1.9227989E-2],"categories":[],"categories_nodes":[],"categories_segments":[],"categories_sizes":[],"default_left":[1,0,0,1,1,0,0,0,0,0,0,0,0],"id":74,"left_children":[1,3,5,7,9,11,-1,-1,-1,-1,-1,-1,-1],"loss_changes":[3.5524938E0,2.7835243E0,2.9523501E0,5.229457E0,2.1892285E0,1.6065326E0,0E0,0E0,0E0,0E0,0E0,0E0,0E0],"parents":[2147483647,0,0,1,1,2,2,3,3,4,4,5,5],"right_children":[2,4,6,8,10,12,-1,-1,-1,-1,-1,-1,-1],"split_conditions":[1.23E2,1.1E1,1E0,1.692E3,8.58E2,3.37E1,-2.5503924E-2,5.724217E-3,-3.223064E-2,-3.0772543E-2,-4.898204E-3,-1.7589137E-2,1.9227989E-2],"split_indices":[8,10,11,6,6,0,0,0,0,0,0,0,0],"split_type":[0,0,0,0,0,0,0,0,0,0,0,0,0],"sum_hessian":[1.489769E2,1.0722769E2,4.1749207E1,7.4406296E1,3.2821392E1,3.7948135E1,3.801071E0,6.488087E1,9.5254345E0,1.4356107E1,1.8465284E1,2.4568496E0,3.5491287E1],"tree_param":{"num_deleted":"0","num_feature":"15","num_nodes":"13","size_leaf_vector":"1"}},{"base_weights":[-5.140815E-3,2.590875E-1,-1.8103044E-1,-4.020218E-1,3.619353E-1,-4.143493E-1,-3.1477124E-3,-3.0488336E-2,1.7435012E-2,3.274505E-2,9.479104E-3,-2.5175968E-2,-3.5277882E-3,3.5568465E-2,-2.7161601E-3],"categories":[],"categories_nodes":[],"categories_segments":[],"categories_sizes":[],"default_left":[0,0,0,1,0,0,0,0,0,0,0,0,0,0,0],"id":75,"left_children":[1,3,5,7,9,11,13,-1,-1,-1,-1,-1,-1,-1,-1],"loss_changes":[6.640966E0,4.0289044E0,3.5584369E0,1.4856795E0,2.398066E0,1.101685E0,1.855016E0,0E0,0E0,0E0,0E0,0E0,0E0,0E0,0E0],"parents":[2147483647,0,0,1,1,2,2,3,3,4,4,5,5,6,6],"right_children":[2,4,6,8,10,12,14,-1,-1,-1,-1,-1,-1,-1,-1],"split_conditions":[3.37E0,9.9E0,1E0,1.995E3,3.5E2,5.86E1,1.22E2,-3.0488336E-2,1.7435012E-2,3.274505E-2,9.479104E-3,-2.5175968E-2,-3.5277882E-3,3.5568465E-2,-2.7161601E-3],"split_indices":[4,10,12,6,3,0,9,0,0,0,0,0,0,0,0],"split_type":[0,0,0,0,0,0,0,0,0,0,0,0,0,0,0],"sum_hessian":[1.4088403E2,5.6114147E1,8.476989E1,7.1627617E0,4.8951385E1,3.609576E1,4.8674133E1,5.757317E0,1.4054447E0,1.7094475E1,3.185691E1,2.8292824E1,7.802935E0,2.390945E0,4.6283188E1],"tree_param":{"num_deleted":"0","num_feature":"15","num_nodes":"15","size_leaf_vector":"1"}},{"base_weights":[1.2540525E-2,2.095003E-1,-2.3227707E-2,7.477828E-1,-3.0339383E-2,-1.3632573E-2,4.861564E-2,1.1316495E-2,-2.24916E-2],"categories":[],"categories_nodes":[],"categories_segments":[],"categories_sizes":[],"default_left":[1,0,0,0,0,0,0,0,0],"id":76,"left_children":[1,3,-1,5,7,-1,-1,-1,-1],"loss_changes":[3.089166E0,3.0210228E0,0E0,1.9141779E0,1.9351377E0,0E0,0E0,0E0,0E0],"parents":[2147483647,0,0,1,1,3,3,4,4],"right_children":[2,4,-1,6,8,-1,-1,-1,-1],"split_conditions":[1E0,2.57E2,-2.3227707E-2,2.04E2,5.36E1,-1.3632573E-2,4.861564E-2,1.1316495E-2,-2.24916E-2],"split_indices":[12,3,0,9,0,0,0,0,0],"split_type":[0,0,0,0,0,0,0,0,0],"sum_hessian":[3.0838787E1,2.2224636E1,8.61415E0,6.1974926E0,1.6027143E1,1.0790681E0,5.1184244E0,1.0228958E1,5.7981863E0],"tree_param":{"num_deleted":"0","num_feature":"15","num_nodes":"9","size_leaf_vector":"1"}},{"base_weights":[5.3395787E-3,-5.4119863E-2,5.44598E-1,8.312357E-2,-2.751666E-1,7.299864E-1,-1.8724179E-2,-6.178334E-3,1.5381391E-2,-2.7949436E-2,-6.4250506E-3,5.2129336E-2,1.75652E-2],"categories":[],"categories_nodes":[],"categories_segments":[],"categories_sizes":[],"default_left":[0,0,1,0,0,0,0,0,0,0,0,0,0],"id":77,"left_children":[1,3,5,7,9,11,-1,-1,-1,-1,-1,-1,-1],"loss_changes":[3.5872624E0,3.0823536E0,2.1663456E0,2.9607763E0,1.5458903E0,7.682662E-1,0E0,0E0,0E0,0E0,0E0,0E0,0E0],"parents":[2147483647,0,0,1,1,2,2,3,3,4,4,5,5],"right_children":[2,4,6,8,10,12,-1,-1,-1,-1,-1,-1,-1],"split_conditions":[4.32E2,1.08E1,2.96E2,5.21E1,2.9E2,1.02E1,-1.8724179E-2,-6.178334E-3,1.5381391E-2,-2.7949436E-2,-6.4250506E-3,5.2129336E-2,1.75652E-2],"split_indices":[9,10,3,0,3,10,0,0,0,0,0,0,0],"split_type":[0,0,0,0,0,0,0,0,0,0,0,0,0],"sum_hessian":[1.0995896E2,9.984909E1,1.010987E1,6.198674E1,3.7862354E1,8.584109E0,1.5257611E0,3.2507893E1,2.9478848E1,1.1941762E1,2.5920591E1,3.7419524E0,4.8421564E0],"tree_param":{"num_deleted":"0","num_feature":"15","num_nodes":"13","size_leaf_vector":"1"}},{"base_weights":[-1.5941883E-3,-9.526678E-2,2.3479198E-1,1.0088014E-2,-3.293803E-1,3.18202E-1,-2.5190732E-2,5.611041E-3,-3.190593E-2,-5.241168E-3,-3.1191185E-2,9.418259E-3,3.3010416E-2],"categories":[],"categories_nodes":[],"categories_segments":[],"categories_sizes":[],"default_left":[1,0,0,1,0,0,0,0,0,0,0,0,0],"id":78,"left_children":[1,3,5,7,9,11,-1,-1,-1,-1,-1,-1,-1],"loss_changes":[3.3327558E0,2.661793E0,2.7920446E0,5.056886E0,2.1483147E0,1.6072669E0,0E0,0E0,0E0,0E0,0E0,0E0,0E0],"parents":[2147483647,0,0,1,1,2,2,3,3,4,4,5,5],"right_children":[2,4,6,8,10,12,-1,-1,-1,-1,-1,-1,-1],"split_conditions":[1.23E2,1.1E1,1E0,1.692E3,1.14E2,1.63E2,-2.5190732E-2,5.611041E-3,-3.190593E-2,-5.241168E-3,-3.1191185E-2,9.418259E-3,3.3010416E-2],"split_indices":[8,10,11,6,8,7,0,0,0,0,0,0,0],"split_type":[0,0,0,0,0,0,0,0,0,0,0,0,0],"sum_hessian":[1.4850108E2,1.0678317E2,4.171791E1,7.430269E1,3.248048E1,3.7996227E1,3.721684E0,6.490327E1,9.399423E0,1.9196383E1,1.3284097E1,2.866487E1,9.331358E0],"tree_param":{"num_deleted":"0","num_feature":"15","num_nodes":"13","size_leaf_vector":"1"}},{"base_weights":[-5.3367075E-3,-1.8918444E-1,2.3614994E-1,-3.5813877E-1,1.1575602E-1,3.7311512E-1,-1.6883782E-1,2.4805848E-2,-1.9994654E-2,2.7124053E-2,-5.6603043E-3,-2.473831E-4,2.6577746E-2,-2.4522478E-2,8.921341E-3],"categories":[],"categories_nodes":[],"categories_segments":[],"categories_sizes":[],"default_left":[1,0,1,0,1,0,0,0,0,0,0,0,0,0,0],"id":79,"left_children":[1,3,5,7,9,11,13,-1,-1,-1,-1,-1,-1,-1,-1],"loss_changes":[6.312442E0,4.199665E0,3.472532E0,2.059547E0,2.9466395E0,2.7726789E0,1.8993392E0,0E0,0E0,0E0,0E0,0E0,0E0,0E0,0E0],"parents":[2147483647,0,0,1,1,2,2,3,3,4,4,5,5,6,6],"right_children":[2,4,6,8,10,12,14,-1,-1,-1,-1,-1,-1,-1,-1],"split_conditions":[1E0,5.6E1,4.04E2,2.8E0,1.9E2,5.3E1,1E0,2.4805848E-2,-1.9994654E-2,2.7124053E-2,-5.6603043E-3,-2.473831E-4,2.6577746E-2,-2.4522478E-2,8.921341E-3],"split_indices":[12,0,3,4,9,5,13,0,0,0,0,0,0,0,0],"split_type":[0,0,0,0,0,0,0,0,0,0,0,0,0,0,0],"sum_hessian":[1.4017616E2,7.9708984E1,6.046717E1,5.1178654E1,2.8530333E1,4.5244404E1,1.5222768E1,1.8778439E0,4.9300808E1,9.484471E0,1.904586E1,1.3647666E1,3.1596737E1,7.68923E0,7.5335383E0],"tree_param":{"num_deleted":"0","num_feature":"15","num_nodes":"15","size_leaf_vector":"1"}},{"base_weights":[1.1820003E-2,2.0145297E-1,-2.3138499E-2,-3.248348E-1,4.2589056E-1,1.0598957E-2,-2.2219956E-2,-1.0996683E-2,3.1714603E-2],"categories":[],"categories_nodes":[],"categories_segments":[],"categories_sizes":[],"default_left":[1,0,0,1,0,0,0,0,0],"id":80,"left_children":[1,3,-1,5,7,-1,-1,-1,-1],"loss_changes":[2.955252E0,2.9045281E0,0E0,5.7998306E-1,2.4073691E0,0E0,0E0,0E0,0E0],"parents":[2147483647,0,0,1,1,3,3,4,4],"right_children":[2,4,-1,6,8,-1,-1,-1,-1],"split_conditions":[1E0,3.44E0,-2.3138499E-2,9.8E0,2.28E2,1.0598957E-2,-2.2219956E-2,-1.0996683E-2,3.1714603E-2],"split_indices":[12,4,0,10,9,0,0,0,0],"split_type":[0,0,0,0,0,0,0,0,0],"sum_hessian":[3.0801025E1,2.2418669E1,8.382357E0,6.5685735E0,1.5850096E1,1.0557209E0,5.5128527E0,3.8533747E0,1.1996721E1],"tree_param":{"num_deleted":"0","num_feature":"15","num_nodes":"9","size_leaf_vector":"1"}},{"base_weights":[5.472123E-3,3.692663E-1,-7.852751E-2,4.6271354E-1,-2.085687E-2,6.6398704E-1,-1.1950714E-1,-1.7446404E-2,2.6584575E-2,4.9039166E-2,-9.3525817E-4,1.1568641E-3,-1.7433977E-2],"categories":[],"categories_nodes":[],"categories_segments":[],"categories_sizes":[],"default_left":[0,1,0,0,0,1,1,0,0,0,0,0,0],"id":81,"left_children":[1,3,5,7,-1,9,11,-1,-1,-1,-1,-1,-1],"loss_changes":[3.4116864E0,1.7318516E0,2.840843E0,1.2598968E0,0E0,1.0779505E0,2.8473942E0,0E0,0E0,0E0,0E0,0E0,0E0],"parents":[2147483647,0,0,1,1,2,2,3,3,5,5,6,6],"right_children":[2,4,6,8,-1,10,12,-1,-1,-1,-1,-1,-1],"split_conditions":[7E-1,2.96E2,9.6E0,1.4E1,-2.085687E-2,1.284E3,1E0,-1.7446404E-2,2.6584575E-2,4.9039166E-2,-9.3525817E-4,1.1568641E-3,-1.7433977E-2],"split_indices":[2,3,10,5,0,6,12,0,0,0,0,0,0],"split_type":[0,0,0,0,0,0,0,0,0,0,0,0,0],"sum_hessian":[1.0969523E2,1.9940187E1,8.975504E1,1.8190271E1,1.7499156E0,3.899354E0,8.585569E1,1.1069223E0,1.708335E1,2.3651772E0,1.5341767E0,5.3472E1,3.238369E1],"tree_param":{"num_deleted":"0","num_feature":"15","num_nodes":"13","size_leaf_vector":"1"}},{"base_weights":[-1.4033744E-3,-9.308414E-2,2.2939427E-1,9.891055E-3,-3.2358247E-1,3.104218E-1,-2.4932167E-2,5.4894197E-3,-3.159335E-2,-3.028941E-2,-4.44025E-3,-1.7931575E-2,1.826427E-2],"categories":[],"categories_nodes":[],"categories_segments":[],"categories_sizes":[],"default_left":[1,0,0,1,1,0,0,0,0,0,0,0,0],"id":82,"left_children":[1,3,5,7,9,11,-1,-1,-1,-1,-1,-1,-1],"loss_changes":[3.1741602E0,2.5512414E0,2.6707344E0,4.888628E0,2.144507E0,1.5623624E0,0E0,0E0,0E0,0E0,0E0,0E0,0E0],"parents":[2147483647,0,0,1,1,2,2,3,3,4,4,5,5],"right_children":[2,4,6,8,10,12,-1,-1,-1,-1,-1,-1,-1],"split_conditions":[1.23E2,1.1E1,1E0,1.692E3,8.58E2,3.37E1,-2.4932167E-2,5.4894197E-3,-3.159335E-2,-3.028941E-2,-4.44025E-3,-1.7931575E-2,1.826427E-2],"split_indices":[8,10,11,6,6,0,0,0,0,0,0,0,0],"split_type":[0,0,0,0,0,0,0,0,0,0,0,0,0],"sum_hessian":[1.4800053E2,1.0635096E2,4.1649574E1,7.417178E1,3.2179176E1,3.7994556E1,3.6550164E0,6.489848E1,9.273301E0,1.3895878E1,1.8283298E1,2.4598806E0,3.5534676E1],"tree_param":{"num_deleted":"0","num_feature":"15","num_nodes":"13","size_leaf_vector":"1"}},{"base_weights":[-5.5009616E-3,2.4719912E-1,-1.7503317E-1,-3.9394218E-1,3.4591416E-1,-4.025428E-1,-4.575825E-3,-3.0026838E-2,1.6924711E-2,3.138801E-2,9.04818E-3,-2.3708526E-2,4.994417E-4,3.4445286E-2,-2.7120032E-3],"categories":[],"categories_nodes":[],"categories_segments":[],"categories_sizes":[],"default_left":[0,0,0,1,0,0,0,0,0,0,0,0,0,0,0],"id":83,"left_children":[1,3,5,7,9,11,13,-1,-1,-1,-1,-1,-1,-1,-1],"loss_changes":[6.059579E0,3.7312112E0,3.280296E0,1.4208037E0,2.1995254E0,1.075542E0,1.7385786E0,0E0,0E0,0E0,0E0,0E0,0E0,0E0,0E0],"parents":[2147483647,0,0,1,1,2,2,3,3,4,4,5,5,6,6],"right_children":[2,4,6,8,10,12,14,-1,-1,-1,-1,-1,-1,-1,-1],"split_conditions":[3.37E0,9.9E0,1E0,1.995E3,3.5E2,3.1E0,1.22E2,-3.0026838E-2,1.6924711E-2,3.138801E-2,9.04818E-3,-2.3708526E-2,4.994417E-4,3.4445286E-2,-2.7120032E-3],"split_indices":[4,10,12,6,3,2,9,0,0,0,0,0,0,0,0],"split_type":[0,0,0,0,0,0,0,0,0,0,0,0,0,0,0],"sum_hessian":[1.3943413E2,5.5800823E1,8.363331E1,7.04617E0,4.8754654E1,3.523867E1,4.8394638E1,5.6364183E0,1.409752E0,1.6963644E1,3.179101E1,2.9898064E1,5.3406057E0,2.374018E0,4.6020622E1],"tree_param":{"num_deleted":"0","num_feature":"15","num_nodes":"15","size_leaf_vector":"1"}},{"base_weights":[1.1374884E-2,1.9491617E-1,-2.3059448E-2,8.382395E-1,1.06272325E-2,8.19093E-3,6.702936E-2,-2.2461837E-2,1.2953802E-2],"categories":[],"categories_nodes":[],"categories_segments":[],"categories_sizes":[],"default_left":[1,0,0,0,1,0,0,0,0],"id":84,"left_children":[1,3,-1,5,7,-1,-1,-1,-1],"loss_changes":[2.844989E0,2.7868552E0,0E0,1.5550513E0,2.3264139E0,0E0,0E0,0E0,0E0],"parents":[2147483647,0,0,1,1,3,3,4,4],"right_children":[2,4,-1,6,8,-1,-1,-1,-1],"split_conditions":[1E0,6.708E1,-2.3059448E-2,5.676E1,2.33E2,8.19093E-3,6.702936E-2,-2.2461837E-2,1.2953802E-2],"split_indices":[12,7,0,7,9,0,0,0,0],"split_type":[0,0,0,0,0,0,0,0,0],"sum_hessian":[3.0764532E1,2.2581522E1,8.18301E0,4.238186E0,1.8343336E1,2.3753262E0,1.8628597E0,6.1506615E0,1.2192675E1],"tree_param":{"num_deleted":"0","num_feature":"15","num_nodes":"9","size_leaf_vector":"1"}},{"base_weights":[5.8280937E-3,-5.196352E-2,5.2515954E-1,8.0775E-2,-2.6912317E-1,7.01245E-1,-1.8428994E-2,3.639171E-2,5.643672E-4,-2.7720964E-2,-6.2363544E-3,5.0265737E-2,1.6656099E-2],"categories":[],"categories_nodes":[],"categories_segments":[],"categories_sizes":[],"default_left":[0,0,1,0,0,0,0,0,0,0,0,0,0],"id":85,"left_children":[1,3,5,7,9,11,-1,-1,-1,-1,-1,-1,-1],"loss_changes":[3.3415186E0,2.9123142E0,2.012853E0,2.8246872E0,1.5075245E0,7.461238E-1,0E0,0E0,0E0,0E0,0E0,0E0,0E0],"parents":[2147483647,0,0,1,1,2,2,3,3,4,4,5,5],"right_children":[2,4,6,8,10,12,-1,-1,-1,-1,-1,-1,-1],"split_conditions":[4.32E2,1.08E1,2.96E2,6.045E1,2.9E2,1.02E1,-1.8428994E-2,3.639171E-2,5.643672E-4,-2.7720964E-2,-6.2363544E-3,5.0265737E-2,1.6656099E-2],"split_indices":[9,10,3,7,3,10,0,0,0,0,0,0,0],"split_type":[0,0,0,0,0,0,0,0,0,0,0,0,0],"sum_hessian":[1.0942645E2,9.9278595E1,1.0147859E1,6.2005722E1,3.7272873E1,8.657526E0,1.4903336E0,5.0942745E0,5.691145E1,1.1571151E1,2.5701721E1,3.7933214E0,4.864204E0],"tree_param":{"num_deleted":"0","num_feature":"15","num_nodes":"13","size_leaf_vector":"1"}},{"base_weights":[-1.3932934E-3,-9.0619996E-2,2.2253813E-1,9.865919E-3,-3.174909E-1,3.007364E-1,-2.4637243E-2,5.3734197E-3,-3.127593E-2,-2.1109011E-2,1.3165787E-2,8.73188E-3,3.1701542E-2],"categories":[],"categories_nodes":[],"categories_segments":[],"categories_sizes":[],"default_left":[1,0,0,1,0,0,0,0,0,0,0,0,0],"id":86,"left_children":[1,3,5,7,9,11,-1,-1,-1,-1,-1,-1,-1],"loss_changes":[2.987494E0,2.4403112E0,2.5311735E0,4.722081E0,2.1083581E0,1.5294597E0,0E0,0E0,0E0,0E0,0E0,0E0,0E0],"parents":[2147483647,0,0,1,1,2,2,3,3,4,4,5,5],"right_children":[2,4,6,8,10,12,-1,-1,-1,-1,-1,-1,-1],"split_conditions":[1.23E2,1.1E1,1E0,1.692E3,6.46E1,1.63E2,-2.4637243E-2,5.3734197E-3,-3.127593E-2,-2.1109011E-2,1.3165787E-2,8.73188E-3,3.1701542E-2],"split_indices":[8,10,11,6,0,7,0,0,0,0,0,0,0],"split_type":[0,0,0,0,0,0,0,0,0,0,0,0,0],"sum_hessian":[1.4750995E2,1.0590632E2,4.1603634E1,7.406007E1,3.1846254E1,3.8025997E1,3.5776339E0,6.491866E1,9.141403E0,2.7214083E1,4.6321726E0,2.8693905E1,9.332094E0],"tree_param":{"num_deleted":"0","num_feature":"15","num_nodes":"13","size_leaf_vector":"1"}},{"base_weights":[-5.7122265E-3,-1.5823345E-1,2.6599088E-1,9.587588E-2,-2.991438E-1,-3.9880868E-2,6.371676E-1,-4.3305014E-3,1.761142E-2,-2.1820927E-2,-1.6630795E-3,2.8499542E-2,-1.07668275E-2,3.5402834E-2,-1.8429067E-2],"categories":[],"categories_nodes":[],"categories_segments":[],"categories_sizes":[],"default_left":[0,0,0,1,1,0,1,0,0,0,0,0,0,0,0],"id":87,"left_children":[1,3,5,7,9,11,13,-1,-1,-1,-1,-1,-1,-1,-1],"loss_changes":[5.8311563E0,3.2547898E0,5.769905E0,1.5694444E0,2.1097665E0,3.1916792E0,1.8949242E0,0E0,0E0,0E0,0E0,0E0,0E0,0E0,0E0],"parents":[2147483647,0,0,1,1,2,2,3,3,4,4,5,5,6,6],"right_children":[2,4,6,8,10,12,14,-1,-1,-1,-1,-1,-1,-1,-1],"split_conditions":[2.5E0,3.41E0,5.12E1,1.105E3,1E0,1.5E2,4.12E2,-4.3305014E-3,1.761142E-2,-2.1820927E-2,-1.6630795E-3,2.8499542E-2,-1.07668275E-2,3.5402834E-2,-1.8429067E-2],"split_indices":[2,4,0,6,12,9,9,0,0,0,0,0,0,0,0],"split_type":[0,0,0,0,0,0,0,0,0,0,0,0,0,0,0],"sum_hessian":[1.3869592E2,8.90981E1,4.9597816E1,3.189684E1,5.7201263E1,2.7680218E1,2.1917597E1,1.9019705E1,1.2877133E1,3.7301258E1,1.9900005E1,5.681855E0,2.1998363E1,2.0750978E1,1.1666193E0],"tree_param":{"num_deleted":"0","num_feature":"15","num_nodes":"15","size_leaf_vector":"1"}},{"base_weights":[1.1363816E-2,-3.880768E-1,2.2233242E-1,-2.3539878E-2,1.1155676E-2,5.161498E-1,-2.4375331E-1,4.1467603E-2,-4.163799E-3,-2.2384008E-2,1.2531452E-2],"categories":[],"categories_nodes":[],"categories_segments":[],"categories_sizes":[],"default_left":[0,0,1,0,0,0,0,0,0,0,0],"id":88,"left_children":[1,3,5,-1,-1,7,9,-1,-1,-1,-1],"loss_changes":[2.7565615E0,6.7715585E-1,3.052503E0,0E0,0E0,2.590228E0,1.0137668E0,0E0,0E0,0E0,0E0],"parents":[2147483647,0,0,1,1,2,2,5,5,6,6],"right_children":[2,4,6,-1,-1,8,10,-1,-1,-1,-1],"split_conditions":[3.44E0,1.3E1,2.57E2,-2.3539878E-2,1.1155676E-2,5.36E1,4.14E2,4.1467603E-2,-4.163799E-3,-2.2384008E-2,